<?xml version="1.0"?>
<opencv_storage>
<cascade>
  <stageType>BOOST</stageType>
  <featureType>LBP</featureType>
  <height>24</height>
  <width>24</width>
  <stageParams>
    <boostType>GAB</boostType>
    <minHitRate>9.9500000476837158e-01</minHitRate>
    <maxFalseAlarm>5.0000000000000000e-01</maxFalseAlarm>
    <weightTrimRate>9.4999998807907104e-01</weightTrimRate>
    <maxDepth>1</maxDepth>
    <maxWeakCount>100</maxWeakCount></stageParams>
  <featureParams>
    <maxCatCount>256</maxCatCount>
    <featSize>1</featSize></featureParams>
  <stageNum>20</stageNum>
  <stages>
    <!-- stage 0 -->
    <_>
      <maxWeakCount>2</maxWeakCount>
      <stageThreshold>-1.3092683255672455e-01</stageThreshold>
      <weakClassifiers>
        <_>
          <internalNodes>
            0 -1 31 -1072905202 -805273600 16384 -796884988 -1073577984
            -2147483648 -268402552 -259013494</internalNodes>
          <leafValues>
            -9.5586758852005005e-01 8.8179671764373779e-01</leafValues></_>
        <_>
          <internalNodes>
            0 -1 9 -721367040 -805306368 0 -1874821116 -1073577856 0
            -1325367296 -243023103</internalNodes>
          <leafValues>
            -9.8413574695587158e-01 8.2494074106216431e-01</leafValues></_></weakClassifiers></_>
    <!-- stage 1 -->
    <_>
      <maxWeakCount>3</maxWeakCount>
      <stageThreshold>-1.3085323572158813e+00</stageThreshold>
      <weakClassifiers>
        <_>
          <internalNodes>
            0 -1 56 -800594674 268484624 32768 -1651948543 -1878994944
            -536838144 -1073569791 -1051893</internalNodes>
          <leafValues>
            -8.9701336622238159e-01 6.4810693264007568e-01</leafValues></_>
        <_>
          <internalNodes>
            0 -1 46 -774767156 268550272 360576 -1852997309 1728299528
            -2147319808 -1417164413 -1342178749</internalNodes>
          <leafValues>
            -9.1408652067184448e-01 5.1618349552154541e-01</leafValues></_>
        <_>
          <internalNodes>
            0 -1 59 1866567555 -1870364411 -2147418112 -1578591726
            1208012800 -1073561598 -2129575871 -1429341814</internalNodes>
          <leafValues>
            -8.3847337961196899e-01 5.0256758928298950e-01</leafValues></_></weakClassifiers></_>
    <!-- stage 2 -->
    <_>
      <maxWeakCount>2</maxWeakCount>
      <stageThreshold>-2.9914313554763794e-01</stageThreshold>
      <weakClassifiers>
        <_>
          <internalNodes>
            0 -1 16 16847349 -687767023 85000661 -553320448 8421563
            -2012725088 -1987999299 -56589184</internalNodes>
          <leafValues>
            -8.9547741413116455e-01 7.3176473379135132e-01</leafValues></_>
        <_>
          <internalNodes>
            0 -1 27 1476457676 1434517632 -1853876787 -578617324
            -2138461304 2021658752 1217186250 763889736</internalNodes>
          <leafValues>
            -9.1462409496307373e-01 5.9633427858352661e-01</leafValues></_></weakClassifiers></_>
    <!-- stage 3 -->
    <_>
      <maxWeakCount>3</maxWeakCount>
      <stageThreshold>-1.3613331317901611e+00</stageThreshold>
      <weakClassifiers>
        <_>
          <internalNodes>
            0 -1 24 1735491583 -44969487 -385697413 -680423017
            -1215652881 -116774901 1235146475 -50992654</internalNodes>
          <leafValues>
            -8.8144898414611816e-01 4.3811395764350891e-01</leafValues></_>
        <_>
          <internalNodes>
            0 -1 18 -614340610 -585531188 -1853357672 -573194088
            2038489855 2030145664 -610346325 768600527</internalNodes>
          <leafValues>
            -8.8999021053314209e-01 3.6676463484764099e-01</leafValues></_>
        <_>
          <internalNodes>
            0 -1 33 2127822574 -716815164 -686173793 -782643062
            -486483780 -74129400 853013390 1909443579</internalNodes>
          <leafValues>
            -7.9944211244583130e-01 4.1010600328445435e-01</leafValues></_></weakClassifiers></_>
    <!-- stage 4 -->
    <_>
      <maxWeakCount>2</maxWeakCount>
      <stageThreshold>-5.1989841461181641e-01</stageThreshold>
      <weakClassifiers>
        <_>
          <internalNodes>
            0 -1 1 -616547375 -138046699 -1988008959 -540082033
            -1165319547 -73170934 -1987462229 -6044229</internalNodes>
          <leafValues>
            -8.5240644216537476e-01 4.4742268323898315e-01</leafValues></_>
        <_>
          <internalNodes>
            0 -1 2 1578890636 -711470707 1073795233 -707280505
            -1182738296 -653868920 1359792641 2140129231</internalNodes>
          <leafValues>
            -9.3981540203094482e-01 3.3250799775123596e-01</leafValues></_></weakClassifiers></_>
    <!-- stage 5 -->
    <_>
      <maxWeakCount>4</maxWeakCount>
      <stageThreshold>-9.5561921596527100e-01</stageThreshold>
      <weakClassifiers>
        <_>
          <internalNodes>
            0 -1 54 -217976335 -1076572072 -1056849490 -1345981105
            -654137211 -224223104 -1047289006 -353379073</internalNodes>
          <leafValues>
            -8.8709676265716553e-01 1.1834319680929184e-01</leafValues></_>
        <_>
          <internalNodes>
            0 -1 11 965827063 1976926433 -1795145661 1565097985
            -930209709 -1414946678 1652691087 -369786772</internalNodes>
          <leafValues>
            -8.1184613704681396e-01 2.6308393478393555e-01</leafValues></_>
        <_>
          <internalNodes>
            0 -1 34 1643697659 -45510498 294224157 -845442863 1529457251
            -217399135 -544619829 -253629584</internalNodes>
          <leafValues>
            -8.3881527185440063e-01 2.6578843593597412e-01</leafValues></_>
        <_>
          <internalNodes>
            0 -1 10 -104836259 -171802552 8506693 -265814011 1208584635
            -368410622 8409609 -200769521</internalNodes>
          <leafValues>
            -4.9823105335235596e-01 5.2078014612197876e-01</leafValues></_></weakClassifiers></_>
    <!-- stage 6 -->
    <_>
      <maxWeakCount>5</maxWeakCount>
      <stageThreshold>-9.4896370172500610e-01</stageThreshold>
      <weakClassifiers>
        <_>
          <internalNodes>
            0 -1 30 -322777961 -1627242495 524305 1468104707 -1610437982
            -2012737400 -1206582645 -422583677</internalNodes>
          <leafValues>
            -7.0629370212554932e-01 3.0310261249542236e-01</leafValues></_>
        <_>
          <internalNodes>
            0 -1 58 -1283104911 -1878290031 -180244032 -1555329015
            -259898997 -1339973632 843104293 -861300341</internalNodes>
          <leafValues>
            -7.5340974330902100e-01 3.2155936956405640e-01</leafValues></_>
        <_>
          <internalNodes>
            0 -1 42 -108489761 -1315462584 -931135352 -1493053306
            -1340516689 -121602046 814319787 -27903222</internalNodes>
          <leafValues>
            -5.1506447792053223e-01 5.6025147438049316e-01</leafValues></_>
        <_>
          <internalNodes>
            0 -1 63 -15359525 -309735355 -536753775 -1832910712
            -1803527669 -2004287311 -1065301513 -121380352</internalNodes>
          <leafValues>
            -5.9855979681015015e-01 4.7572425007820129e-01</leafValues></_>
        <_>
          <internalNodes>
            0 -1 40 -1342193665 -285212673 -1 1879047677 -32905
            2147483647 -37258 -1090584620</internalNodes>
          <leafValues>
            -4.6000140905380249e-01 6.1473506689071655e-01</leafValues></_></weakClassifiers></_>
    <!-- stage 7 -->
    <_>
      <maxWeakCount>5</maxWeakCount>
      <stageThreshold>-1.2011364698410034e+00</stageThreshold>
      <weakClassifiers>
        <_>
          <internalNodes>
            0 -1 5 403043541 -1824243692 4264381 320012306 32948
            -1199570944 -2012705874 -1181765263</internalNodes>
          <leafValues>
            -6.5872257947921753e-01 2.9919138550758362e-01</leafValues></_>
        <_>
          <internalNodes>
            0 -1 52 -778968777 -249495167 318836883 -922222557
            1778395914 989855872 -1038972389 -458429662</internalNodes>
          <leafValues>
            -8.4461027383804321e-01 2.2720594704151154e-01</leafValues></_>
        <_>
          <internalNodes>
            0 -1 28 -1064768309 292323527 -2013265408 826937345
            413294712 -2013036544 -712425462 525297895</internalNodes>
          <leafValues>
            -7.4192458391189575e-01 2.5051936507225037e-01</leafValues></_>
        <_>
          <internalNodes>
            0 -1 41 -2147446704 436863104 8 764313632 -1610612728
            -2147483648 -401932288 -1232305536</internalNodes>
          <leafValues>
            -4.4526204466819763e-01 4.6911835670471191e-01</leafValues></_>
        <_>
          <internalNodes>
            0 -1 39 -1056946780 2055291201 16916801 1401294912 134250496
            -1744273272 -792657861 -189744637</internalNodes>
          <leafValues>
            -4.6693220734596252e-01 4.9693912267684937e-01</leafValues></_></weakClassifiers></_>
    <!-- stage 8 -->
    <_>
      <maxWeakCount>4</maxWeakCount>
      <stageThreshold>-8.3196401596069336e-01</stageThreshold>
      <weakClassifiers>
        <_>
          <internalNodes>
            0 -1 35 -801060463 1359171876 1053977 1438974044 -268372753
            -668876800 -1692094997 1048562399</internalNodes>
          <leafValues>
            -7.7553308010101318e-01 2.0982986688613892e-01</leafValues></_>
        <_>
          <internalNodes>
            0 -1 12 1363148987 -745275248 151060957 1427374337
            -1844930389 -745930616 -1711044461 -1782415230</internalNodes>
          <leafValues>
            -5.9214109182357788e-01 4.9331176280975342e-01</leafValues></_>
        <_>
          <internalNodes>
            0 -1 37 -1038039416 -1818950517 285253790 436412553
            -1828472460 -1006206976 -1593628117 811668239</internalNodes>
          <leafValues>
            -8.6501526832580566e-01 3.2688349485397339e-01</leafValues></_>
        <_>
          <internalNodes>
            0 -1 66 -1698109985 1124565003 134270982 293994583
            -1006525689 1073874944 1090609187 -52656886</internalNodes>
          <leafValues>
            -6.7009037733078003e-01 4.8529160022735596e-01</leafValues></_></weakClassifiers></_>
    <!-- stage 9 -->
    <_>
      <maxWeakCount>4</maxWeakCount>
      <stageThreshold>-7.3201036453247070e-01</stageThreshold>
      <weakClassifiers>
        <_>
          <internalNodes>
            0 -1 49 -789276609 -1278095168 17367169 -1853291135
            -1425282405 -897548152 -1970752877 -39878213</internalNodes>
          <leafValues>
            -7.5614553689956665e-01 4.6898263692855835e-01</leafValues></_>
        <_>
          <internalNodes>
            0 -1 3 -1753095885 -643235261 269486096 -1820131311 33882251
            42049738 587278511 -203308969</internalNodes>
          <leafValues>
            -8.0086869001388550e-01 3.6278879642486572e-01</leafValues></_>
        <_>
          <internalNodes>
            0 -1 61 -75431624 -1719594607 1115685309 -1743454035
            587203192 -1874821120 -1056929661 -1606196023</internalNodes>
          <leafValues>
            -7.3883247375488281e-01 4.4354784488677979e-01</leafValues></_>
        <_>
          <internalNodes>
            0 -1 43 -2011065973 1876279434 -1996451431 -309100525
            -1476386069 436338826 -2012571103 1871366873</internalNodes>
          <leafValues>
            -7.8220152854919434e-01 4.5847007632255554e-01</leafValues></_></weakClassifiers></_>
    <!-- stage 10 -->
    <_>
      <maxWeakCount>3</maxWeakCount>
      <stageThreshold>-8.1122219562530518e-01</stageThreshold>
      <weakClassifiers>
        <_>
          <internalNodes>
            0 -1 29 -586098639 1600233865 -788511487 -41615295
            1207959739 -78802942 545309182 -1144266486</internalNodes>
          <leafValues>
            -7.7191329002380371e-01 6.6573816537857056e-01</leafValues></_>
        <_>
          <internalNodes>
            0 -1 47 1427198197 -1657683835 -1992210144 -304786991
            -2122276151 -1191182336 -1299987719 -285486974</internalNodes>
          <leafValues>
            -7.2308796644210815e-01 6.7655098438262939e-01</leafValues></_>
        <_>
          <internalNodes>
            0 -1 8 -436108589 -486162425 268451914 -1056964221 4242383
            -1325399807 237129537 -73930621</internalNodes>
          <leafValues>
            -6.6359835863113403e-01 6.8377906084060669e-01</leafValues></_></weakClassifiers></_>
    <!-- stage 11 -->
    <_>
      <maxWeakCount>4</maxWeakCount>
      <stageThreshold>-5.7843601703643799e-01</stageThreshold>
      <weakClassifiers>
        <_>
          <internalNodes>
            0 -1 14 -16777419 1891500012 -8993347 -268435457 -2097153 -4
            -2097169 -35662437</internalNodes>
          <leafValues>
            -7.5295186042785645e-01 7.8056424856185913e-01</leafValues></_>
        <_>
          <internalNodes>
            0 -1 62 -2123513029 285266358 268702867 -1801566830 25682771
            35864643 -1580613213 -997336148</internalNodes>
          <leafValues>
            -9.0977871417999268e-01 4.6893808245658875e-01</leafValues></_>
        <_>
          <internalNodes>
            0 -1 55 1976809903 769186689 1090584576 -1346004815
            1342210265 813699072 318926957 -1894935893</internalNodes>
          <leafValues>
            -8.5259777307510376e-01 4.8640212416648865e-01</leafValues></_>
        <_>
          <internalNodes>
            0 -1 23 -1781526211 -603354943 553697653 -737603583
            -1970765249 -393707392 -503185333 -662468415</internalNodes>
          <leafValues>
            -7.8082436323165894e-01 6.0639321804046631e-01</leafValues></_></weakClassifiers></_>
    <!-- stage 12 -->
    <_>
      <maxWeakCount>5</maxWeakCount>
      <stageThreshold>-1.0252993106842041e+00</stageThreshold>
      <weakClassifiers>
        <_>
          <internalNodes>
            0 -1 26 -1862270503 -1869545472 -1056963255 -595525628
            -1342013288 -2147483648 1073743881 -1140064120</internalNodes>
          <leafValues>
            -7.0415401458740234e-01 2.6558890938758850e-01</leafValues></_>
        <_>
          <internalNodes>
            0 -1 38 1610735759 -2146762624 -2147483648 1888157768
            -1073217528 0 -2147450872 -18313200</internalNodes>
          <leafValues>
            -7.9814076423645020e-01 3.1859356164932251e-01</leafValues></_>
        <_>
          <internalNodes>
            0 -1 21 -1793280871 -1065353213 262152 -1929052160
            -536286686 -2147483648 -494220800 654934283</internalNodes>
          <leafValues>
            -5.7667320966720581e-01 4.2198288440704346e-01</leafValues></_>
        <_>
          <internalNodes>
            0 -1 57 22106500 -1740242943 69 -846512061 2101 16384
            33603749 -662519806</internalNodes>
          <leafValues>
            -5.0703203678131104e-01 5.5287873744964600e-01</leafValues></_>
        <_>
          <internalNodes>
            0 -1 67 279081 -938995696 65537 -788201471 -2139062269
            -2013265920 -1064795896 -2037727223</internalNodes>
          <leafValues>
            -4.9786621332168579e-01 6.1094588041305542e-01</leafValues></_></weakClassifiers></_>
    <!-- stage 13 -->
    <_>
      <maxWeakCount>2</maxWeakCount>
      <stageThreshold>-4.8827180266380310e-01</stageThreshold>
      <weakClassifiers>
        <_>
          <internalNodes>
            0 -1 19 -687091749 -2130081727 272630017 -782628604
            1753753756 302088195 -536760178 -1180986389</internalNodes>
          <leafValues>
            -7.9346680641174316e-01 3.6730360984802246e-01</leafValues></_>
        <_>
          <internalNodes>
            0 -1 22 823713593 -787659767 -804699887 -1047691261
            -926252966 -1073216501 1242137390 191201931</internalNodes>
          <leafValues>
            -8.5557544231414795e-01 3.1036418676376343e-01</leafValues></_></weakClassifiers></_>
    <!-- stage 14 -->
    <_>
      <maxWeakCount>4</maxWeakCount>
      <stageThreshold>-6.9366794824600220e-01</stageThreshold>
      <weakClassifiers>
        <_>
          <internalNodes>
            0 -1 5 -1818635811 -1851703281 16849217 -1722478573
            142639589 -1610399599 -2147434293 -1154760693</internalNodes>
          <leafValues>
            -6.9747900962829590e-01 4.7851002216339111e-01</leafValues></_>
        <_>
          <internalNodes>
            0 -1 13 -833055915 1209221248 1107430405 -1055326207
            -1039432158 -1700233215 -234334037 -963164077</internalNodes>
          <leafValues>
            -6.2140822410583496e-01 5.1481658220291138e-01</leafValues></_>
        <_>
          <internalNodes>
            0 -1 15 -1186982445 521863425 -804601647 218169607
            -368527195 -2012741632 -2104851709 37806241</internalNodes>
          <leafValues>
            -8.6307597160339355e-01 3.4296515583992004e-01</leafValues></_>
        <_>
          <internalNodes>
            0 -1 45 427897151 -1691254767 285303297 989862016
            -1878977777 -2137325568 -1873569400 -1531348471</internalNodes>
          <leafValues>
            -7.6795625686645508e-01 3.5207045078277588e-01</leafValues></_></weakClassifiers></_>
    <!-- stage 15 -->
    <_>
      <maxWeakCount>4</maxWeakCount>
      <stageThreshold>-6.5820461511611938e-01</stageThreshold>
      <weakClassifiers>
        <_>
          <internalNodes>
            0 -1 25 -1857439559 -687275839 -2096430371 1283653761
            -2130037059 -912616948 -2004116834 -305485303</internalNodes>
          <leafValues>
            -7.7083331346511841e-01 3.4782609343528748e-01</leafValues></_>
        <_>
          <internalNodes>
            0 -1 6 -939204141 -738029395 50348035 -519696384 651 32779
            -1602074551 -335861760</internalNodes>
          <leafValues>
            -8.2344424724578857e-01 3.4928911924362183e-01</leafValues></_>
        <_>
          <internalNodes>
            0 -1 32 -614648353 -32960509 524433 -1257717612 -1473727951
            -662665085 176718960 -827682364</internalNodes>
          <leafValues>
            -6.3147020339965820e-01 6.2509691715240479e-01</leafValues></_>
        <_>
          <internalNodes>
            0 -1 0 1788678137 -1073094591 102473 -804323200 244161253
            -2113208319 -2141680662 -104513402</internalNodes>
          <leafValues>
            -7.2384965419769287e-01 4.9261730909347534e-01</leafValues></_></weakClassifiers></_>
    <!-- stage 16 -->
    <_>
      <maxWeakCount>2</maxWeakCount>
      <stageThreshold>-5.8925759792327881e-01</stageThreshold>
      <weakClassifiers>
        <_>
          <internalNodes>
            0 -1 60 -203929777 285491208 16777217 -788332159 -1283267301
            -1325400064 -800877950 -1417176405</internalNodes>
          <leafValues>
            -8.8619852066040039e-01 2.5589224696159363e-01</leafValues></_>
        <_>
          <internalNodes>
            0 -1 7 1100604753 -788512767 65865 -989625195 740559102
            -939491327 145358897 -269767881</internalNodes>
          <leafValues>
            -8.4514981508255005e-01 3.2115992903709412e-01</leafValues></_></weakClassifiers></_>
    <!-- stage 17 -->
    <_>
      <maxWeakCount>4</maxWeakCount>
      <stageThreshold>-4.6997603774070740e-01</stageThreshold>
      <weakClassifiers>
        <_>
          <internalNodes>
            0 -1 48 -219947813 117532801 -1325236223 -2063529724
            -1068777334 -1744756734 -393819349 -1413237503</internalNodes>
          <leafValues>
            -7.9939210414886475e-01 4.8267897963523865e-01</leafValues></_>
        <_>
          <internalNodes>
            0 -1 65 328455563 -805266239 311361 1884787020 21013061
            -2147483648 136366745 -1333099703</internalNodes>
          <leafValues>
            -8.0596846342086792e-01 4.9238911271095276e-01</leafValues></_>
        <_>
          <internalNodes>
            0 -1 51 -1856949763 -801680880 -1073709021 -753856368
            1635881034 1426194432 1921052803 2072807833</internalNodes>
          <leafValues>
            -8.1337445974349976e-01 5.0944846868515015e-01</leafValues></_>
        <_>
          <internalNodes>
            0 -1 36 -442375729 -1224404991 -1073741823 -1853325294
            1501565134 1611169792 -268263381 -1592891957</internalNodes>
          <leafValues>
            -6.3166970014572144e-01 7.2467219829559326e-01</leafValues></_></weakClassifiers></_>
    <!-- stage 18 -->
    <_>
      <maxWeakCount>4</maxWeakCount>
      <stageThreshold>-8.4711968898773193e-01</stageThreshold>
      <weakClassifiers>
        <_>
          <internalNodes>
            0 -1 53 -2010992 -16777218 -1 520077054 -1610577789
            -2147483520 -1610448768 -351666176</internalNodes>
          <leafValues>
            -6.0598504543304443e-01 6.8663597106933594e-01</leafValues></_>
        <_>
          <internalNodes>
            0 -1 41 -2147483392 276824064 8 226754568 -2147483648
            -2139094910 49152 -1262190592</internalNodes>
          <leafValues>
            -5.0143408775329590e-01 4.3001231551170349e-01</leafValues></_>
        <_>
          <internalNodes>
            0 -1 20 2130526169 -1140854803 -8409091 1879048191
            2147450879 -3 2147450879 -1879048321</internalNodes>
          <leafValues>
            -3.3500951528549194e-01 6.9040822982788086e-01</leafValues></_>
        <_>
          <internalNodes>
            0 -1 68 2261211 -989626367 268439809 -960364543 151527427
            -2147483648 131846 -73457534</internalNodes>
          <leafValues>
            -3.3613741397857666e-01 7.2598570585250854e-01</leafValues></_></weakClassifiers></_>
    <!-- stage 19 -->
    <_>
      <maxWeakCount>5</maxWeakCount>
      <stageThreshold>-8.6512064933776855e-01</stageThreshold>
      <weakClassifiers>
        <_>
          <internalNodes>
            0 -1 17 276893917 -804782071 -1073217388 -1995407348
            -1879039768 -1744830464 -535658357 -1198849919</internalNodes>
          <leafValues>
            -6.2765955924987793e-01 4.3835616111755371e-01</leafValues></_>
        <_>
          <internalNodes>
            0 -1 64 3756277 -1739308032 1073747971 2018017281
            -1476394880 1619034112 -2009059056 -1182211967</internalNodes>
          <leafValues>
            -6.3580173254013062e-01 3.3174628019332886e-01</leafValues></_>
        <_>
          <internalNodes>
            0 -1 4 277037979 1485455367 134287377 -1878392831
            -2147483381 318849026 -2139090773 -1954168752</internalNodes>
          <leafValues>
            -6.8263411521911621e-01 3.6502143740653992e-01</leafValues></_>
        <_>
          <internalNodes>
            0 -1 50 805199358 2147483647 -1 -65537 -131081 -1 -229379
            -16875659</internalNodes>
          <leafValues>
            -4.5044571161270142e-01 5.9857106208801270e-01</leafValues></_>
        <_>
          <internalNodes>
            0 -1 44 -1073791003 -294913 -65 -17039361 2147471165 -129
            2136932351 -539033737</internalNodes>
          <leafValues>
            -4.2594617605209351e-01 5.6387251615524292e-01</leafValues></_></weakClassifiers></_></stages>
  <features>
    <_>
      <rect>
        0 0 6 4</rect></_>
    <_>
      <rect>
        0 0 7 4</rect></_>
    <_>
      <rect>
        0 0 7 8</rect></_>
    <_>
      <rect>
        0 5 4 3</rect></_>
    <_>
      <rect>
        0 6 3 2</rect></_>
    <_>
      <rect>
        0 7 3 1</rect></_>
    <_>
      <rect>
        0 9 3 3</rect></_>
    <_>
      <rect>
        0 12 3 2</rect></_>
    <_>
      <rect>
        0 13 3 3</rect></_>
    <_>
      <rect>
        1 1 4 5</rect></_>
    <_>
      <rect>
        1 3 4 2</rect></_>
    <_>
      <rect>
        1 4 4 2</rect></_>
    <_>
      <rect>
        1 6 6 1</rect></_>
    <_>
      <rect>
        2 0 6 4</rect></_>
    <_>
      <rect>
        2 12 7 4</rect></_>
    <_>
      <rect>
        3 3 4 2</rect></_>
    <_>
      <rect>
        3 5 4 2</rect></_>
    <_>
      <rect>
        3 6 4 1</rect></_>
    <_>
      <rect>
        3 6 5 6</rect></_>
    <_>
      <rect>
        3 12 4 4</rect></_>
    <_>
      <rect>
        3 13 6 3</rect></_>
    <_>
      <rect>
        4 0 3 3</rect></_>
    <_>
      <rect>
        4 1 2 3</rect></_>
    <_>
      <rect>
        4 2 5 2</rect></_>
    <_>
      <rect>
        4 6 3 2</rect></_>
    <_>
      <rect>
        5 4 5 2</rect></_>
    <_>
      <rect>
        5 5 3 1</rect></_>
    <_>
      <rect>
        5 5 6 4</rect></_>
    <_>
      <rect>
        5 9 3 5</rect></_>
    <_>
      <rect>
        5 12 6 3</rect></_>
    <_>
      <rect>
        6 0 3 5</rect></_>
    <_>
      <rect>
        6 0 5 5</rect></_>
    <_>
      <rect>
        6 3 3 2</rect></_>
    <_>
      <rect>
        6 3 4 6</rect></_>
    <_>
      <rect>
        6 7 2 2</rect></_>
    <_>
      <rect>
        6 8 6 4</rect></_>
    <_>
      <rect>
        6 11 2 4</rect></_>
    <_>
      <rect>
        7 1 3 5</rect></_>
    <_>
      <rect>
        7 7 1 2</rect></_>
    <_>
      <rect>
        7 8 2 1</rect></_>
    <_>
      <rect>
        7 10 1 1</rect></_>
    <_>
      <rect>
        7 11 1 1</rect></_>
    <_>
      <rect>
        7 11 2 2</rect></_>
    <_>
      <rect>
        7 17 4 2</rect></_>
    <_>
      <rect>
        8 0 2 1</rect></_>
    <_>
      <rect>
        8 7 3 2</rect></_>
    <_>
      <rect>
        8 7 5 4</rect></_>
    <_>
      <rect>
        8 11 5 2</rect></_>
    <_>
      <rect>
        9 2 3 5</rect></_>
    <_>
      <rect>
        9 2 4 3</rect></_>
    <_>
      <rect>
        9 3 1 5</rect></_>
    <_>
      <rect>
        9 3 2 2</rect></_>
    <_>
      <rect>
        9 6 3 2</rect></_>
    <_>
      <rect>
        10 6 2 1</rect></_>
    <_>
      <rect>
        10 10 3 2</rect></_>
    <_>
      <rect>
        10 12 3 3</rect></_>
    <_>
      <rect>
        10 12 3 4</rect></_>
    <_>
      <rect>
        10 12 4 3</rect></_>
    <_>
      <rect>
        11 11 2 2</rect></_>
    <_>
      <rect>
        11 12 3 3</rect></_>
    <_>
      <rect>
        12 0 4 6</rect></_>
    <_>
      <rect>
        12 2 4 2</rect></_>
    <_>
      <rect>
        12 8 3 4</rect></_>
    <_>
      <rect>
        12 11 4 2</rect></_>
    <_>
      <rect>
        12 15 2 2</rect></_>
    <_>
      <rect>
        14 9 3 5</rect></_>
    <_>
      <rect>
        15 11 2 3</rect></_>
    <_>
      <rect>
        16 0 1 2</rect></_>
    <_>
      <rect>
        17 2 1 1</rect></_></features></cascade>
</opencv_storage>
