<?xml version="1.0"?>
<opencv_storage>
<cascade>
  <stageType>BOOST</stageType>
  <featureType>LBP</featureType>
  <height>24</height>
  <width>24</width>
  <stageParams>
    <boostType>GAB</boostType>
    <minHitRate>9.9500000476837158e-01</minHitRate>
    <maxFalseAlarm>5.0000000000000000e-01</maxFalseAlarm>
    <weightTrimRate>9.4999998807907104e-01</weightTrimRate>
    <maxDepth>1</maxDepth>
    <maxWeakCount>100</maxWeakCount></stageParams>
  <featureParams>
    <maxCatCount>256</maxCatCount>
    <featSize>1</featSize></featureParams>
  <stageNum>20</stageNum>
  <stages>
    <!-- stage 0 -->
    <_>
      <maxWeakCount>3</maxWeakCount>
      <stageThreshold>-1.0244702100753784e+00</stageThreshold>
      <weakClassifiers>
        <_>
          <internalNodes>
            0 -1 58 -372783281 -196610 -1 -1 -1358971194 1073741822
            -1073807567 -1431308353</internalNodes>
          <leafValues>
            -9.1464596986770630e-01 9.3434345722198486e-01</leafValues></_>
        <_>
          <internalNodes>
            0 -1 0 -250424320 -1879048192 -2147483648 -1073463296
            -1073692672 -2147483648 -1040088960 -1056718334</internalNodes>
          <leafValues>
            -8.9056086540222168e-01 8.8688915967941284e-01</leafValues></_>
        <_>
          <internalNodes>
            0 -1 66 -788140991 1073741888 0 -2118090624 49153 32896
            -2113765376 -2128576382</internalNodes>
          <leafValues>
            -9.1734111309051514e-01 7.8073668479919434e-01</leafValues></_></weakClassifiers></_>
    <!-- stage 1 -->
    <_>
      <maxWeakCount>3</maxWeakCount>
      <stageThreshold>-1.1958920955657959e+00</stageThreshold>
      <weakClassifiers>
        <_>
          <internalNodes>
            0 -1 50 -1051466997 419464192 8 -1852471167 -1033863032
            545259520 -1073704823 -1059957</internalNodes>
          <leafValues>
            -8.8652479648590088e-01 6.8636363744735718e-01</leafValues></_>
        <_>
          <internalNodes>
            0 -1 12 -657673723 -712310655 1611268227 -577961599
            -1031618559 34209792 -360029303 -207105141</internalNodes>
          <leafValues>
            -8.3167338371276855e-01 6.2435740232467651e-01</leafValues></_>
        <_>
          <internalNodes>
            0 -1 19 1800401550 -788430455 32896 -775598077 -234717048
            -1073709056 1090576386 1938682762</internalNodes>
          <leafValues>
            -9.3372464179992676e-01 5.3499019145965576e-01</leafValues></_></weakClassifiers></_>
    <!-- stage 2 -->
    <_>
      <maxWeakCount>3</maxWeakCount>
      <stageThreshold>-1.2005840539932251e+00</stageThreshold>
      <weakClassifiers>
        <_>
          <internalNodes>
            0 -1 49 -930561644 335577156 -2122248192 -1920106495
            -1035875953 8947712 -1324748661 -1074793829</internalNodes>
          <leafValues>
            -8.6626744270324707e-01 6.9411766529083252e-01</leafValues></_>
        <_>
          <internalNodes>
            0 -1 35 -750199604 -1878818816 -2130632315 -1648164843
            -1610040372 -1988063104 -1475507318 747528202</internalNodes>
          <leafValues>
            -9.4276219606399536e-01 6.1503136157989502e-01</leafValues></_>
        <_>
          <internalNodes>
            0 -1 20 385971705 1435762835 -1795079871 -573636287 58722739
            -1031241719 1795885405 -708736896</internalNodes>
          <leafValues>
            -9.0632158517837524e-01 6.0844564437866211e-01</leafValues></_></weakClassifiers></_>
    <!-- stage 3 -->
    <_>
      <maxWeakCount>3</maxWeakCount>
      <stageThreshold>-9.6802765130996704e-01</stageThreshold>
      <weakClassifiers>
        <_>
          <internalNodes>
            0 -1 53 -737144485 1933578241 285218109 -1123745787
            -2071938659 -1199046656 -2013226088 -393707512</internalNodes>
          <leafValues>
            -8.9820361137390137e-01 7.6941174268722534e-01</leafValues></_>
        <_>
          <internalNodes>
            0 -1 1 268472465 -1660910464 -1693941307 -37486588
            -2004244087 -1425407864 -268374136 -1081630582</internalNodes>
          <leafValues>
            -8.3859133720397949e-01 7.7111178636550903e-01</leafValues></_>
        <_>
          <internalNodes>
            0 -1 42 -1862246188 1565065216 1358959103 -1794113404
            -2139055908 -1199046144 -2113869270 -1467285496</internalNodes>
          <leafValues>
            -8.1156456470489502e-01 7.6876723766326904e-01</leafValues></_></weakClassifiers></_>
    <!-- stage 4 -->
    <_>
      <maxWeakCount>3</maxWeakCount>
      <stageThreshold>-1.2089482545852661e+00</stageThreshold>
      <weakClassifiers>
        <_>
          <internalNodes>
            0 -1 29 -170535945 -587142689 1896014981 -551567289
            -158674277 -242087775 -1316562289 -522750397</internalNodes>
          <leafValues>
            -8.4663867950439453e-01 4.9052631855010986e-01</leafValues></_>
        <_>
          <internalNodes>
            0 -1 39 -15627781 490554451 541977 -1177206607 1218470043
            952713260 -8176913 -271581746</internalNodes>
          <leafValues>
            -7.6931422948837280e-01 5.6326913833618164e-01</leafValues></_>
        <_>
          <internalNodes>
            0 -1 30 -543695138 -238762804 22139540 -1718239083
            1912652476 864190466 -1165759608 562491375</internalNodes>
          <leafValues>
            -9.5429641008377075e-01 4.0700462460517883e-01</leafValues></_></weakClassifiers></_>
    <!-- stage 5 -->
    <_>
      <maxWeakCount>3</maxWeakCount>
      <stageThreshold>-9.6187585592269897e-01</stageThreshold>
      <weakClassifiers>
        <_>
          <internalNodes>
            0 -1 10 -15632579 -1281535991 1080230043 -720944803
            -1802860341 1644920859 2343083 -403451061</internalNodes>
          <leafValues>
            -8.4550267457962036e-01 4.6887966990470886e-01</leafValues></_>
        <_>
          <internalNodes>
            0 -1 64 2011028959 2006372760 -1474775789 995746285
            822194803 -1643015934 269016503 -274770</internalNodes>
          <leafValues>
            -7.6801717281341553e-01 5.2818024158477783e-01</leafValues></_>
        <_>
          <internalNodes>
            0 -1 16 890812817 -107894395 1359139154 -44740545
            -1735792581 -1688108919 -763262263 -174333817</internalNodes>
          <leafValues>
            -6.4455348253250122e-01 6.7620790004730225e-01</leafValues></_></weakClassifiers></_>
    <!-- stage 6 -->
    <_>
      <maxWeakCount>5</maxWeakCount>
      <stageThreshold>-1.4510565996170044e+00</stageThreshold>
      <weakClassifiers>
        <_>
          <internalNodes>
            0 -1 27 -648291235 289923549 -1962830959 -1526379297
            -905805605 -1417115000 1535795119 -2101073</internalNodes>
          <leafValues>
            -7.8366911411285400e-01 3.4297519922256470e-01</leafValues></_>
        <_>
          <internalNodes>
            0 -1 24 -1257742977 -1650814815 1561067867 -1646411637
            -1995924323 -1971306494 -1207301301 -1281521123</internalNodes>
          <leafValues>
            -6.7469841241836548e-01 4.4862294197082520e-01</leafValues></_>
        <_>
          <internalNodes>
            0 -1 48 970941931 336625666 1082228867 1535314105 1670171170
            -1601994686 -1599510479 -427949951</internalNodes>
          <leafValues>
            -6.9127541780471802e-01 4.6403503417968750e-01</leafValues></_>
        <_>
          <internalNodes>
            0 -1 63 -381037029 -1151364900 -1794539503 165643673
            -1592086442 536920216 -509039213 -359829786</internalNodes>
          <leafValues>
            -7.9568105936050415e-01 4.1399022936820984e-01</leafValues></_>
        <_>
          <internalNodes>
            0 -1 60 -984555576 623198363 1951417665 356896846 -821940606
            2072027137 -905541605 -1396707180</internalNodes>
          <leafValues>
            -8.2895487546920776e-01 3.7094610929489136e-01</leafValues></_></weakClassifiers></_>
    <!-- stage 7 -->
    <_>
      <maxWeakCount>4</maxWeakCount>
      <stageThreshold>-9.4487690925598145e-01</stageThreshold>
      <weakClassifiers>
        <_>
          <internalNodes>
            0 -1 46 -553428689 1608061381 -1996406361 -112000747
            -822046371 -369097981 -649361059 -326501117</internalNodes>
          <leafValues>
            -8.5600000619888306e-01 1.0192023962736130e-01</leafValues></_>
        <_>
          <internalNodes>
            0 -1 47 -1617011489 -535576191 1073823747 -5000639 3133487
            -502542182 -351550939 -1664725738</internalNodes>
          <leafValues>
            -6.1871194839477539e-01 4.1877290606498718e-01</leafValues></_>
        <_>
          <internalNodes>
            0 -1 5 863764435 2009285147 -1878834984 382177411 -658468129
            -908361598 2026717439 1559752712</internalNodes>
          <leafValues>
            -8.0263346433639526e-01 3.3164003491401672e-01</leafValues></_>
        <_>
          <internalNodes>
            0 -1 40 -1006337975 1629177868 83919441 1304494211 139200650
            1250066674 1073811913 1602376092</internalNodes>
          <leafValues>
            -7.1161758899688721e-01 3.7454825639724731e-01</leafValues></_></weakClassifiers></_>
    <!-- stage 8 -->
    <_>
      <maxWeakCount>5</maxWeakCount>
      <stageThreshold>-1.1265324354171753e+00</stageThreshold>
      <weakClassifiers>
        <_>
          <internalNodes>
            0 -1 54 -83108741 -776634350 -2113781693 -171638637
            -519872405 -805175294 -1449483773 -49633171</internalNodes>
          <leafValues>
            -6.3345193862915039e-01 4.5874586701393127e-01</leafValues></_>
        <_>
          <internalNodes>
            0 -1 3 832248313 2136035457 -855554033 1973207180 578859699
            -90537973 403191887 -708738996</internalNodes>
          <leafValues>
            -8.3996927738189697e-01 3.0890825390815735e-01</leafValues></_>
        <_>
          <internalNodes>
            0 -1 39 -24916545 124373315 1074872692 -1148063103 420569775
            -1147535344 -1593817005 -1412441426</internalNodes>
          <leafValues>
            -6.6670477390289307e-01 3.5804846882820129e-01</leafValues></_>
        <_>
          <internalNodes>
            0 -1 36 -786311898 -1645436522 -1879028518 1498923272
            1484818878 2023800840 184752058 1876149742</internalNodes>
          <leafValues>
            -6.3624137639999390e-01 3.6935570836067200e-01</leafValues></_>
        <_>
          <internalNodes>
            0 -1 56 -32817 -1073774593 2130706431 -25165841 -1073741965
            268435319 2146793471 -92875276</internalNodes>
          <leafValues>
            -3.8051539659500122e-01 7.1287322044372559e-01</leafValues></_></weakClassifiers></_>
    <!-- stage 9 -->
    <_>
      <maxWeakCount>4</maxWeakCount>
      <stageThreshold>-8.2647109031677246e-01</stageThreshold>
      <weakClassifiers>
        <_>
          <internalNodes>
            0 -1 62 1695242463 1909313809 -1795124973 -1110338747
            153327847 -528433111 -1291641953 -1884846809</internalNodes>
          <leafValues>
            -7.3553717136383057e-01 3.0283224582672119e-01</leafValues></_>
        <_>
          <internalNodes>
            0 -1 42 -604313138 -5123686 1342292805 755175553 185134036
            -616361816 -1953449682 741987101</internalNodes>
          <leafValues>
            -8.8388437032699585e-01 2.3140446841716766e-01</leafValues></_>
        <_>
          <internalNodes>
            0 -1 11 278412693 -581877503 -1879043773 -750173247
            -356478337 -394117048 554190954 -741620597</internalNodes>
          <leafValues>
            -7.2866827249526978e-01 3.4451916813850403e-01</leafValues></_>
        <_>
          <internalNodes>
            0 -1 15 1350664295 -564981303 4241885 -581598971 159934586
            478183939 -1073706952 -68515702</internalNodes>
          <leafValues>
            -5.8993810415267944e-01 5.1732480525970459e-01</leafValues></_></weakClassifiers></_>
    <!-- stage 10 -->
    <_>
      <maxWeakCount>4</maxWeakCount>
      <stageThreshold>-9.7843891382217407e-01</stageThreshold>
      <weakClassifiers>
        <_>
          <internalNodes>
            0 -1 43 1028954397 1503707552 -1069490960 -654274270
            -1069485931 -805175168 -1069419045 -1190419509</internalNodes>
          <leafValues>
            -7.7112299203872681e-01 3.0081301927566528e-01</leafValues></_>
        <_>
          <internalNodes>
            0 -1 17 -627568043 -643698492 87318 -183385853 -1970796001
            -603979263 186819275 -1064307645</internalNodes>
          <leafValues>
            -8.1981599330902100e-01 3.7118250131607056e-01</leafValues></_>
        <_>
          <internalNodes>
            0 -1 31 -1886264009 -1602125423 -1199303439 1535365496
            977940523 998285312 -1727912685 2043527224</internalNodes>
          <leafValues>
            -8.1127429008483887e-01 4.0239909291267395e-01</leafValues></_>
        <_>
          <internalNodes>
            0 -1 2 855670751 -800861989 285840411 -1593311227 8421535
            -897383933 -1702199165 1091682312</internalNodes>
          <leafValues>
            -8.3916014432907104e-01 4.5288473367691040e-01</leafValues></_></weakClassifiers></_>
    <!-- stage 11 -->
    <_>
      <maxWeakCount>4</maxWeakCount>
      <stageThreshold>-1.5077017545700073e+00</stageThreshold>
      <weakClassifiers>
        <_>
          <internalNodes>
            0 -1 22 -261038605 472354957 1090584591 -660009591
            -2146790781 -2012545015 -771628919 -75036405</internalNodes>
          <leafValues>
            -7.7412730455398560e-01 3.9955848455429077e-01</leafValues></_>
        <_>
          <internalNodes>
            0 -1 13 -16422979 -1864400430 4522331 -1860758382 -878098197
            -1476394880 688546222 -567823009</internalNodes>
          <leafValues>
            -7.1711438894271851e-01 4.9760457873344421e-01</leafValues></_>
        <_>
          <internalNodes>
            0 -1 61 -246426681 806425681 268554643 -1113648889 555910593
            1879097399 -351556313 -297811800</internalNodes>
          <leafValues>
            -7.0259761810302734e-01 5.2315044403076172e-01</leafValues></_>
        <_>
          <internalNodes>
            0 -1 14 -1869484711 -1097646039 329093129 -712702715
            202090931 -653787096 -1714711766 -1626750421</internalNodes>
          <leafValues>
            -5.6776052713394165e-01 6.8613761663436890e-01</leafValues></_></weakClassifiers></_>
    <!-- stage 12 -->
    <_>
      <maxWeakCount>4</maxWeakCount>
      <stageThreshold>-5.9850686788558960e-01</stageThreshold>
      <weakClassifiers>
        <_>
          <internalNodes>
            0 -1 55 -658114593 970739721 -1254047439 -724089855
            -620527398 -637288320 -651968333 -38812009</internalNodes>
          <leafValues>
            -7.7606177330017090e-01 5.9079283475875854e-01</leafValues></_>
        <_>
          <internalNodes>
            0 -1 4 1435751743 -653188989 151519324 -743731183
            -2129721153 -1730968420 -1048344434 -178929583</internalNodes>
          <leafValues>
            -8.1713539361953735e-01 4.6684238314628601e-01</leafValues></_>
        <_>
          <internalNodes>
            0 -1 67 -342865025 -1116307067 -1878982651 -83884797
            419620367 562036904 1091084822 -1949048465</internalNodes>
          <leafValues>
            -7.8916811943054199e-01 5.1352113485336304e-01</leafValues></_>
        <_>
          <internalNodes>
            0 -1 28 -1716217379 -661548795 1694563525 -552631931
            -2120173185 -527783744 -1466064350 1921707247</internalNodes>
          <leafValues>
            -8.0280864238739014e-01 5.1862096786499023e-01</leafValues></_></weakClassifiers></_>
    <!-- stage 13 -->
    <_>
      <maxWeakCount>4</maxWeakCount>
      <stageThreshold>-1.7028094530105591e+00</stageThreshold>
      <weakClassifiers>
        <_>
          <internalNodes>
            0 -1 65 -1721784465 -2147466880 1073741890 -799715324
            -780021641 -2139094784 -771702720 -993603125</internalNodes>
          <leafValues>
            -8.1534773111343384e-01 1.8043844401836395e-01</leafValues></_>
        <_>
          <internalNodes>
            0 -1 7 1346896139 -653063927 671633875 453574788 -394229073
            -267878400 -1451128250 -1635483327</internalNodes>
          <leafValues>
            -7.1495229005813599e-01 3.8177695870399475e-01</leafValues></_>
        <_>
          <internalNodes>
            0 -1 34 -586083489 -2063263743 1896067883 -1476165375
            134400249 -894959615 -1962177642 135400065</internalNodes>
          <leafValues>
            -6.6686528921127319e-01 4.3263980746269226e-01</leafValues></_>
        <_>
          <internalNodes>
            0 -1 9 26341715 -1726414832 -1879011263 1426063360
            -1987010547 142606336 813703299 -226426879</internalNodes>
          <leafValues>
            -6.3509911298751831e-01 4.9435585737228394e-01</leafValues></_></weakClassifiers></_>
    <!-- stage 14 -->
    <_>
      <maxWeakCount>4</maxWeakCount>
      <stageThreshold>-5.5479001998901367e-01</stageThreshold>
      <weakClassifiers>
        <_>
          <internalNodes>
            0 -1 38 -893135927 1124139521 1073741824 -980942847
            159596971 -1073676286 1376051481 -116661853</internalNodes>
          <leafValues>
            -6.9597071409225464e-01 5.5820894241333008e-01</leafValues></_>
        <_>
          <internalNodes>
            0 -1 51 -1341567090 165773456 1073742353 490799112 680002207
            1896120464 33606026 -1412802670</internalNodes>
          <leafValues>
            -7.9763168096542358e-01 3.9037296175956726e-01</leafValues></_>
        <_>
          <internalNodes>
            0 -1 37 1157730525 -2113400688 285261916 336658439 143163392
            1342734346 553654291 -26968045</internalNodes>
          <leafValues>
            -7.1788454055786133e-01 4.5596182346343994e-01</leafValues></_>
        <_>
          <internalNodes>
            0 -1 41 209803743 -733998769 -2146954935 -1282076543
            578822843 -2080239360 -1593826517 -1968011224</internalNodes>
          <leafValues>
            -7.0515412092208862e-01 4.9135622382164001e-01</leafValues></_></weakClassifiers></_>
    <!-- stage 15 -->
    <_>
      <maxWeakCount>4</maxWeakCount>
      <stageThreshold>-9.0637362003326416e-01</stageThreshold>
      <weakClassifiers>
        <_>
          <internalNodes>
            0 -1 25 -587129443 -779352831 1225226115 -716635771
            -1995403721 -1450016640 -1165817441 -189955959</internalNodes>
          <leafValues>
            -8.1293302774429321e-01 2.3351158201694489e-01</leafValues></_>
        <_>
          <internalNodes>
            0 -1 69 1327135579 -175636195 -2147254144 184893449
            1342412859 -1341587456 -1701261289 -889003518</internalNodes>
          <leafValues>
            -8.1518733501434326e-01 3.1373539566993713e-01</leafValues></_>
        <_>
          <internalNodes>
            0 -1 68 2081779927 1346474071 -1877880435 80280900 8596299
            -1870380664 743027719 -1782453750</internalNodes>
          <leafValues>
            -7.3786246776580811e-01 4.4669967889785767e-01</leafValues></_>
        <_>
          <internalNodes>
            0 -1 6 1395901895 -443186983 2 1124073536 50495497
            -1602205302 38109390 -788110826</internalNodes>
          <leafValues>
            -7.1575814485549927e-01 4.6732562780380249e-01</leafValues></_></weakClassifiers></_>
    <!-- stage 16 -->
    <_>
      <maxWeakCount>4</maxWeakCount>
      <stageThreshold>-1.7159615755081177e+00</stageThreshold>
      <weakClassifiers>
        <_>
          <internalNodes>
            0 -1 26 -779883062 -670054400 -792674084 -728657664
            -2013142370 -1040088568 29494170 -541220397</internalNodes>
          <leafValues>
            -6.8028420209884644e-01 6.4119601249694824e-01</leafValues></_>
        <_>
          <internalNodes>
            0 -1 18 -1952894243 -711262182 1141195105 -1677115327
            -259018726 -133529600 1213894826 244048386</internalNodes>
          <leafValues>
            -8.0683583021163940e-01 4.6574741601943970e-01</leafValues></_>
        <_>
          <internalNodes>
            0 -1 33 -869826081 -1069186943 -1052752816 -1056898989
            -402096121 -1602224128 -1916696437 2005257162</internalNodes>
          <leafValues>
            -7.6356333494186401e-01 4.9293106794357300e-01</leafValues></_>
        <_>
          <internalNodes>
            0 -1 44 1343146120 -2147319359 1627587235 1627490305
            58767528 -803078143 270655722 2144332427</internalNodes>
          <leafValues>
            -7.3786139488220215e-01 5.0163203477859497e-01</leafValues></_></weakClassifiers></_>
    <!-- stage 17 -->
    <_>
      <maxWeakCount>3</maxWeakCount>
      <stageThreshold>-9.7135823965072632e-01</stageThreshold>
      <weakClassifiers>
        <_>
          <internalNodes>
            0 -1 45 -65809057 -510454383 268435461 -2130608127
            -116721270 -1509851136 -1341935221 -420576342</internalNodes>
          <leafValues>
            -8.0437046289443970e-01 4.2918455600738525e-01</leafValues></_>
        <_>
          <internalNodes>
            0 -1 1 2115027889 277381144 -993648443 -402127744 1761329339
            470286976 38076558 -873742193</internalNodes>
          <leafValues>
            -7.3054534196853638e-01 5.5484187602996826e-01</leafValues></_>
        <_>
          <internalNodes>
            0 -1 57 895407549 2124401448 -1731669831 -709160830
            1090551972 1883398145 -338439937 -1513263090</internalNodes>
          <leafValues>
            -6.6999745368957520e-01 5.9009456634521484e-01</leafValues></_></weakClassifiers></_>
    <!-- stage 18 -->
    <_>
      <maxWeakCount>3</maxWeakCount>
      <stageThreshold>-9.8046708106994629e-01</stageThreshold>
      <weakClassifiers>
        <_>
          <internalNodes>
            0 -1 8 -724968997 -243148800 -989822969 -113196757
            -938982453 -1040007160 809528267 -75279801</internalNodes>
          <leafValues>
            -8.3578950166702271e-01 4.6331235766410828e-01</leafValues></_>
        <_>
          <internalNodes>
            0 -1 52 -1132476337 1130467368 690168355 -838793087
            -662592382 -1006632703 -2088455633 581890766</internalNodes>
          <leafValues>
            -7.8510636091232300e-01 5.0495153665542603e-01</leafValues></_>
        <_>
          <internalNodes>
            0 -1 23 -167981924 -1 2147483135 -131073 -65555 -131073
            -2050 -50855937</internalNodes>
          <leafValues>
            -6.4962917566299438e-01 6.8378651142120361e-01</leafValues></_></weakClassifiers></_>
    <!-- stage 19 -->
    <_>
      <maxWeakCount>4</maxWeakCount>
      <stageThreshold>-6.7157554626464844e-01</stageThreshold>
      <weakClassifiers>
        <_>
          <internalNodes>
            0 -1 21 -1677403811 998871239 -1879044975 -2142175081
            -2134814326 -1450639208 -2004612209 -204783454</internalNodes>
          <leafValues>
            -7.9908674955368042e-01 2.3049001395702362e-01</leafValues></_>
        <_>
          <internalNodes>
            0 -1 32 -134460067 -1966342127 10518536 -1060831099
            -1400138583 136 -1995765759 -928791925</internalNodes>
          <leafValues>
            -6.3253223896026611e-01 4.8845720291137695e-01</leafValues></_>
        <_>
          <internalNodes>
            0 -1 64 806461439 1560451293 19206451 80445764 276873331
            61014228 805417111 -1428625144</internalNodes>
          <leafValues>
            -8.5424172878265381e-01 3.7890672683715820e-01</leafValues></_>
        <_>
          <internalNodes>
            0 -1 59 -1055832929 2030478657 285294657 420577537
            -1557400598 805535876 -2147404981 -790444880</internalNodes>
          <leafValues>
            -5.3628104925155640e-01 5.6194305419921875e-01</leafValues></_></weakClassifiers></_></stages>
  <features>
    <_>
      <rect>
        0 0 3 5</rect></_>
    <_>
      <rect>
        0 0 4 5</rect></_>
    <_>
      <rect>
        0 4 4 2</rect></_>
    <_>
      <rect>
        0 4 5 2</rect></_>
    <_>
      <rect>
        0 5 4 3</rect></_>
    <_>
      <rect>
        0 6 2 2</rect></_>
    <_>
      <rect>
        0 6 4 3</rect></_>
    <_>
      <rect>
        0 6 6 2</rect></_>
    <_>
      <rect>
        0 11 3 4</rect></_>
    <_>
      <rect>
        0 13 5 1</rect></_>
    <_>
      <rect>
        1 0 3 5</rect></_>
    <_>
      <rect>
        1 0 5 3</rect></_>
    <_>
      <rect>
        1 0 7 4</rect></_>
    <_>
      <rect>
        1 1 3 4</rect></_>
    <_>
      <rect>
        1 2 5 2</rect></_>
    <_>
      <rect>
        1 14 7 3</rect></_>
    <_>
      <rect>
        2 0 5 3</rect></_>
    <_>
      <rect>
        2 1 6 3</rect></_>
    <_>
      <rect>
        2 2 3 2</rect></_>
    <_>
      <rect>
        2 2 6 7</rect></_>
    <_>
      <rect>
        2 4 4 2</rect></_>
    <_>
      <rect>
        2 11 7 4</rect></_>
    <_>
      <rect>
        3 0 4 5</rect></_>
    <_>
      <rect>
        3 0 7 5</rect></_>
    <_>
      <rect>
        3 3 4 2</rect></_>
    <_>
      <rect>
        3 4 6 2</rect></_>
    <_>
      <rect>
        3 6 7 6</rect></_>
    <_>
      <rect>
        3 11 6 4</rect></_>
    <_>
      <rect>
        4 2 4 2</rect></_>
    <_>
      <rect>
        4 6 3 3</rect></_>
    <_>
      <rect>
        4 7 5 4</rect></_>
    <_>
      <rect>
        4 15 5 2</rect></_>
    <_>
      <rect>
        5 0 3 4</rect></_>
    <_>
      <rect>
        5 4 4 6</rect></_>
    <_>
      <rect>
        5 5 5 2</rect></_>
    <_>
      <rect>
        5 5 6 4</rect></_>
    <_>
      <rect>
        5 7 6 5</rect></_>
    <_>
      <rect>
        5 12 2 1</rect></_>
    <_>
      <rect>
        5 12 2 4</rect></_>
    <_>
      <rect>
        5 13 4 3</rect></_>
    <_>
      <rect>
        5 14 4 3</rect></_>
    <_>
      <rect>
        6 5 3 2</rect></_>
    <_>
      <rect>
        6 5 6 4</rect></_>
    <_>
      <rect>
        6 9 6 5</rect></_>
    <_>
      <rect>
        7 0 3 6</rect></_>
    <_>
      <rect>
        7 3 4 4</rect></_>
    <_>
      <rect>
        7 6 4 2</rect></_>
    <_>
      <rect>
        7 9 1 2</rect></_>
    <_>
      <rect>
        7 11 1 2</rect></_>
    <_>
      <rect>
        7 11 4 4</rect></_>
    <_>
      <rect>
        7 12 4 4</rect></_>
    <_>
      <rect>
        7 13 2 2</rect></_>
    <_>
      <rect>
        8 1 3 5</rect></_>
    <_>
      <rect>
        8 4 4 3</rect></_>
    <_>
      <rect>
        8 9 1 1</rect></_>
    <_>
      <rect>
        8 9 4 5</rect></_>
    <_>
      <rect>
        8 11 1 1</rect></_>
    <_>
      <rect>
        8 11 5 4</rect></_>
    <_>
      <rect>
        9 4 4 5</rect></_>
    <_>
      <rect>
        9 5 5 4</rect></_>
    <_>
      <rect>
        9 8 3 3</rect></_>
    <_>
      <rect>
        9 8 4 3</rect></_>
    <_>
      <rect>
        9 11 4 3</rect></_>
    <_>
      <rect>
        9 12 5 3</rect></_>
    <_>
      <rect>
        10 11 4 3</rect></_>
    <_>
      <rect>
        11 3 3 6</rect></_>
    <_>
      <rect>
        11 6 4 3</rect></_>
    <_>
      <rect>
        12 0 3 5</rect></_>
    <_>
      <rect>
        12 9 2 4</rect></_>
    <_>
      <rect>
        14 4 3 3</rect></_></features></cascade>
</opencv_storage>
