<?xml version="1.0"?>
<opencv_storage>
<cascade>
  <stageType>BOOST</stageType>
  <featureType>HAAR</featureType>
  <height>24</height>
  <width>24</width>
  <stageParams>
    <boostType>GAB</boostType>
    <minHitRate>9.9500000476837158e-01</minHitRate>
    <maxFalseAlarm>5.0000000000000000e-01</maxFalseAlarm>
    <weightTrimRate>9.4999998807907104e-01</weightTrimRate>
    <maxDepth>1</maxDepth>
    <maxWeakCount>100</maxWeakCount></stageParams>
  <featureParams>
    <maxCatCount>0</maxCatCount>
    <featSize>1</featSize>
    <mode>BASIC</mode></featureParams>
  <stageNum>16</stageNum>
  <stages>
    <!-- stage 0 -->
    <_>
      <maxWeakCount>3</maxWeakCount>
      <stageThreshold>-1.3374484777450562e+00</stageThreshold>
      <weakClassifiers>
        <_>
          <internalNodes>
            0 -1 60 2.4087134748697281e-02</internalNodes>
          <leafValues>
            -9.6787148714065552e-01 8.7301588058471680e-01</leafValues></_>
        <_>
          <internalNodes>
            0 -1 57 2.2003506310284138e-03</internalNodes>
          <leafValues>
            -9.2402368783950806e-01 7.3944169282913208e-01</leafValues></_>
        <_>
          <internalNodes>
            0 -1 36 -1.9509475678205490e-03</internalNodes>
          <leafValues>
            5.5444663763046265e-01 -9.4016110897064209e-01</leafValues></_></weakClassifiers></_>
    <!-- stage 1 -->
    <_>
      <maxWeakCount>3</maxWeakCount>
      <stageThreshold>-1.1613172292709351e+00</stageThreshold>
      <weakClassifiers>
        <_>
          <internalNodes>
            0 -1 61 3.3793568611145020e-02</internalNodes>
          <leafValues>
            -9.5464855432510376e-01 3.5664334893226624e-01</leafValues></_>
        <_>
          <internalNodes>
            0 -1 28 3.3763993531465530e-02</internalNodes>
          <leafValues>
            -8.2382363080978394e-01 5.1072627305984497e-01</leafValues></_>
        <_>
          <internalNodes>
            0 -1 5 9.3991253525018692e-03</internalNodes>
          <leafValues>
            -7.1739500761032104e-01 6.6644364595413208e-01</leafValues></_></weakClassifiers></_>
    <!-- stage 2 -->
    <_>
      <maxWeakCount>3</maxWeakCount>
      <stageThreshold>-1.1609231233596802e+00</stageThreshold>
      <weakClassifiers>
        <_>
          <internalNodes>
            0 -1 65 2.4405047297477722e-02</internalNodes>
          <leafValues>
            -9.4252872467041016e-01 2.9705214500427246e-01</leafValues></_>
        <_>
          <internalNodes>
            0 -1 53 6.8623665720224380e-03</internalNodes>
          <leafValues>
            -7.5412672758102417e-01 4.4808459281921387e-01</leafValues></_>
        <_>
          <internalNodes>
            0 -1 0 1.9229176687076688e-03</internalNodes>
          <leafValues>
            -7.0384848117828369e-01 5.5819970369338989e-01</leafValues></_></weakClassifiers></_>
    <!-- stage 3 -->
    <_>
      <maxWeakCount>4</maxWeakCount>
      <stageThreshold>-1.1634573936462402e+00</stageThreshold>
      <weakClassifiers>
        <_>
          <internalNodes>
            0 -1 59 3.9188452064990997e-02</internalNodes>
          <leafValues>
            -8.4285712242126465e-01 4.1389727592468262e-01</leafValues></_>
        <_>
          <internalNodes>
            0 -1 55 -3.4443177282810211e-02</internalNodes>
          <leafValues>
            3.6479336023330688e-01 -7.7097856998443604e-01</leafValues></_>
        <_>
          <internalNodes>
            0 -1 19 -2.5390428490936756e-03</internalNodes>
          <leafValues>
            2.6727163791656494e-01 -9.3374824523925781e-01</leafValues></_>
        <_>
          <internalNodes>
            0 -1 25 -2.4128638324327767e-04</internalNodes>
          <leafValues>
            -8.2201081514358521e-01 2.4835459887981415e-01</leafValues></_></weakClassifiers></_>
    <!-- stage 4 -->
    <_>
      <maxWeakCount>6</maxWeakCount>
      <stageThreshold>-1.6968603134155273e+00</stageThreshold>
      <weakClassifiers>
        <_>
          <internalNodes>
            0 -1 56 -6.8790894001722336e-03</internalNodes>
          <leafValues>
            4.5701357722282410e-01 -7.2477066516876221e-01</leafValues></_>
        <_>
          <internalNodes>
            0 -1 62 7.8654550015926361e-03</internalNodes>
          <leafValues>
            -6.8881124258041382e-01 3.5169517993927002e-01</leafValues></_>
        <_>
          <internalNodes>
            0 -1 68 2.5167170912027359e-02</internalNodes>
          <leafValues>
            -8.8322198390960693e-01 2.3967356979846954e-01</leafValues></_>
        <_>
          <internalNodes>
            0 -1 52 6.8011656403541565e-03</internalNodes>
          <leafValues>
            -3.6952319741249084e-01 7.9417806863784790e-01</leafValues></_>
        <_>
          <internalNodes>
            0 -1 41 2.4080563336610794e-02</internalNodes>
          <leafValues>
            -5.4214215278625488e-01 4.1877922415733337e-01</leafValues></_>
        <_>
          <internalNodes>
            0 -1 27 6.9489840825553983e-05</internalNodes>
          <leafValues>
            -6.4992105960845947e-01 3.8871341943740845e-01</leafValues></_></weakClassifiers></_>
    <!-- stage 5 -->
    <_>
      <maxWeakCount>6</maxWeakCount>
      <stageThreshold>-1.5969817638397217e+00</stageThreshold>
      <weakClassifiers>
        <_>
          <internalNodes>
            0 -1 44 1.4227170497179031e-02</internalNodes>
          <leafValues>
            -7.3080569505691528e-01 3.2031250000000000e-01</leafValues></_>
        <_>
          <internalNodes>
            0 -1 61 3.3697023987770081e-02</internalNodes>
          <leafValues>
            -8.4189069271087646e-01 2.2017976641654968e-01</leafValues></_>
        <_>
          <internalNodes>
            0 -1 70 5.5494485422968864e-03</internalNodes>
          <leafValues>
            1.2552024424076080e-01 -1.</leafValues></_>
        <_>
          <internalNodes>
            0 -1 1 -1.5374031662940979e-01</internalNodes>
          <leafValues>
            -1. 1.4582002162933350e-01</leafValues></_>
        <_>
          <internalNodes>
            0 -1 50 1.6169663518667221e-02</internalNodes>
          <leafValues>
            -5.4666131734848022e-01 3.9927121996879578e-01</leafValues></_>
        <_>
          <internalNodes>
            0 -1 39 -1.4221947640180588e-02</internalNodes>
          <leafValues>
            2.6005983352661133e-01 -6.9489681720733643e-01</leafValues></_></weakClassifiers></_>
    <!-- stage 6 -->
    <_>
      <maxWeakCount>6</maxWeakCount>
      <stageThreshold>-9.9961292743682861e-01</stageThreshold>
      <weakClassifiers>
        <_>
          <internalNodes>
            0 -1 45 -4.9995584413409233e-03</internalNodes>
          <leafValues>
            5.5445545911788940e-01 -7.2227233648300171e-01</leafValues></_>
        <_>
          <internalNodes>
            0 -1 47 1.1693835258483887e-02</internalNodes>
          <leafValues>
            -3.8857692480087280e-01 5.9999275207519531e-01</leafValues></_>
        <_>
          <internalNodes>
            0 -1 34 3.8131484761834145e-03</internalNodes>
          <leafValues>
            -4.6495869755744934e-01 5.0837546586990356e-01</leafValues></_>
        <_>
          <internalNodes>
            0 -1 71 -1.1989431455731392e-02</internalNodes>
          <leafValues>
            -8.6691880226135254e-01 2.7064409852027893e-01</leafValues></_>
        <_>
          <internalNodes>
            0 -1 66 1.1342385783791542e-02</internalNodes>
          <leafValues>
            1.9496397674083710e-01 -1.</leafValues></_>
        <_>
          <internalNodes>
            0 -1 21 -1.6309410333633423e-01</internalNodes>
          <leafValues>
            -1. 1.1058690398931503e-01</leafValues></_></weakClassifiers></_>
    <!-- stage 7 -->
    <_>
      <maxWeakCount>4</maxWeakCount>
      <stageThreshold>-1.2652769088745117e+00</stageThreshold>
      <weakClassifiers>
        <_>
          <internalNodes>
            0 -1 31 5.1859915256500244e-02</internalNodes>
          <leafValues>
            -7.9497486352920532e-01 3.2278481125831604e-01</leafValues></_>
        <_>
          <internalNodes>
            0 -1 9 -1.5344033017754555e-02</internalNodes>
          <leafValues>
            2.5314393639564514e-01 -8.3989024162292480e-01</leafValues></_>
        <_>
          <internalNodes>
            0 -1 67 -4.6965703368186951e-03</internalNodes>
          <leafValues>
            -1. 1.6001585125923157e-01</leafValues></_>
        <_>
          <internalNodes>
            0 -1 42 -9.0627360623329878e-04</internalNodes>
          <leafValues>
            -8.9909082651138306e-01 2.0957231521606445e-01</leafValues></_></weakClassifiers></_>
    <!-- stage 8 -->
    <_>
      <maxWeakCount>6</maxWeakCount>
      <stageThreshold>-1.6039751768112183e+00</stageThreshold>
      <weakClassifiers>
        <_>
          <internalNodes>
            0 -1 26 -1.1903116106987000e-01</internalNodes>
          <leafValues>
            4.2019543051719666e-01 -8.1474101543426514e-01</leafValues></_>
        <_>
          <internalNodes>
            0 -1 11 -2.0012415945529938e-02</internalNodes>
          <leafValues>
            2.6169753074645996e-01 -8.2329314947128296e-01</leafValues></_>
        <_>
          <internalNodes>
            0 -1 38 -5.1609321963042021e-04</internalNodes>
          <leafValues>
            -6.4078682661056519e-01 3.1659355759620667e-01</leafValues></_>
        <_>
          <internalNodes>
            0 -1 14 2.5596047635190189e-05</internalNodes>
          <leafValues>
            2.1539185941219330e-01 -9.4683790206909180e-01</leafValues></_>
        <_>
          <internalNodes>
            0 -1 24 -1.2038313798257150e-05</internalNodes>
          <leafValues>
            -8.6811345815658569e-01 2.6151004433631897e-01</leafValues></_>
        <_>
          <internalNodes>
            0 -1 3 1.0569736361503601e-02</internalNodes>
          <leafValues>
            -9.5842194557189941e-01 1.9794392585754395e-01</leafValues></_></weakClassifiers></_>
    <!-- stage 9 -->
    <_>
      <maxWeakCount>4</maxWeakCount>
      <stageThreshold>-1.0948569774627686e+00</stageThreshold>
      <weakClassifiers>
        <_>
          <internalNodes>
            0 -1 69 7.7468469738960266e-02</internalNodes>
          <leafValues>
            -7.6704543828964233e-01 4.7450980544090271e-01</leafValues></_>
        <_>
          <internalNodes>
            0 -1 32 -3.9117738604545593e-02</internalNodes>
          <leafValues>
            3.5876208543777466e-01 -8.1266957521438599e-01</leafValues></_>
        <_>
          <internalNodes>
            0 -1 12 9.7306219686288387e-05</internalNodes>
          <leafValues>
            2.1459785103797913e-01 -1.</leafValues></_>
        <_>
          <internalNodes>
            0 -1 63 -1.1885847925441340e-04</internalNodes>
          <leafValues>
            -8.4612590074539185e-01 2.7026024460792542e-01</leafValues></_></weakClassifiers></_>
    <!-- stage 10 -->
    <_>
      <maxWeakCount>5</maxWeakCount>
      <stageThreshold>-1.3859339952468872e+00</stageThreshold>
      <weakClassifiers>
        <_>
          <internalNodes>
            0 -1 75 7.4524648487567902e-02</internalNodes>
          <leafValues>
            -7.4472171068191528e-01 3.2342007756233215e-01</leafValues></_>
        <_>
          <internalNodes>
            0 -1 23 8.7451249361038208e-02</internalNodes>
          <leafValues>
            -5.6711107492446899e-01 6.6833907365798950e-01</leafValues></_>
        <_>
          <internalNodes>
            0 -1 20 1.9680862314999104e-03</internalNodes>
          <leafValues>
            -5.1352083683013916e-01 4.6357277035713196e-01</leafValues></_>
        <_>
          <internalNodes>
            0 -1 4 -5.1416799426078796e-02</internalNodes>
          <leafValues>
            -9.7941982746124268e-01 2.3978272080421448e-01</leafValues></_>
        <_>
          <internalNodes>
            0 -1 74 -1.7503448179922998e-04</internalNodes>
          <leafValues>
            -9.0890657901763916e-01 1.9963686168193817e-01</leafValues></_></weakClassifiers></_>
    <!-- stage 11 -->
    <_>
      <maxWeakCount>3</maxWeakCount>
      <stageThreshold>-9.5233929157257080e-01</stageThreshold>
      <weakClassifiers>
        <_>
          <internalNodes>
            0 -1 17 1.3268453069031239e-02</internalNodes>
          <leafValues>
            -7.9481863975524902e-01 2.2543352842330933e-01</leafValues></_>
        <_>
          <internalNodes>
            0 -1 10 6.7332826554775238e-02</internalNodes>
          <leafValues>
            2.8015711903572083e-01 -7.4329793453216553e-01</leafValues></_>
        <_>
          <internalNodes>
            0 -1 2 3.1678652763366699e-01</internalNodes>
          <leafValues>
            -4.3447488546371460e-01 7.5097656250000000e-01</leafValues></_></weakClassifiers></_>
    <!-- stage 12 -->
    <_>
      <maxWeakCount>6</maxWeakCount>
      <stageThreshold>-1.0996620655059814e+00</stageThreshold>
      <weakClassifiers>
        <_>
          <internalNodes>
            0 -1 48 1.1840422451496124e-01</internalNodes>
          <leafValues>
            -6.6694986820220947e-01 7.1641790866851807e-01</leafValues></_>
        <_>
          <internalNodes>
            0 -1 30 3.2949313521385193e-02</internalNodes>
          <leafValues>
            -6.6115140914916992e-01 4.7329238057136536e-01</leafValues></_>
        <_>
          <internalNodes>
            0 -1 7 2.1521091461181641e-02</internalNodes>
          <leafValues>
            2.9038900136947632e-01 -7.3174911737442017e-01</leafValues></_>
        <_>
          <internalNodes>
            0 -1 16 -4.6981626655906439e-04</internalNodes>
          <leafValues>
            -8.9673924446105957e-01 2.4966043233871460e-01</leafValues></_>
        <_>
          <internalNodes>
            0 -1 6 1.8222521990537643e-02</internalNodes>
          <leafValues>
            -5.5961525440216064e-01 4.3924084305763245e-01</leafValues></_>
        <_>
          <internalNodes>
            0 -1 76 -3.8140814285725355e-04</internalNodes>
          <leafValues>
            -6.5340083837509155e-01 3.9554858207702637e-01</leafValues></_></weakClassifiers></_>
    <!-- stage 13 -->
    <_>
      <maxWeakCount>5</maxWeakCount>
      <stageThreshold>-1.3880136013031006e+00</stageThreshold>
      <weakClassifiers>
        <_>
          <internalNodes>
            0 -1 18 1.9990101456642151e-02</internalNodes>
          <leafValues>
            -9.0318769216537476e-01 1.6379310190677643e-01</leafValues></_>
        <_>
          <internalNodes>
            0 -1 15 -2.4019478261470795e-01</internalNodes>
          <leafValues>
            9.1513633728027344e-01 -4.3973404169082642e-01</leafValues></_>
        <_>
          <internalNodes>
            0 -1 13 1.9958675839006901e-03</internalNodes>
          <leafValues>
            2.9244521260261536e-01 -1.</leafValues></_>
        <_>
          <internalNodes>
            0 -1 40 4.5744605362415314e-02</internalNodes>
          <leafValues>
            -5.5519908666610718e-01 5.0822323560714722e-01</leafValues></_>
        <_>
          <internalNodes>
            0 -1 8 1.3106531696394086e-03</internalNodes>
          <leafValues>
            2.1766202151775360e-01 -1.</leafValues></_></weakClassifiers></_>
    <!-- stage 14 -->
    <_>
      <maxWeakCount>6</maxWeakCount>
      <stageThreshold>-1.4378360509872437e+00</stageThreshold>
      <weakClassifiers>
        <_>
          <internalNodes>
            0 -1 49 1.5242856461554766e-03</internalNodes>
          <leafValues>
            -7.4428272247314453e-01 7.7363893389701843e-02</leafValues></_>
        <_>
          <internalNodes>
            0 -1 58 -3.3967932686209679e-03</internalNodes>
          <leafValues>
            8.3405596017837524e-01 -3.4154811501502991e-01</leafValues></_>
        <_>
          <internalNodes>
            0 -1 35 -4.2683715000748634e-03</internalNodes>
          <leafValues>
            -9.6420383453369141e-01 2.2342248260974884e-01</leafValues></_>
        <_>
          <internalNodes>
            0 -1 37 -9.2224046587944031e-02</internalNodes>
          <leafValues>
            -8.1433886289596558e-01 2.1192131936550140e-01</leafValues></_>
        <_>
          <internalNodes>
            0 -1 29 4.6944841742515564e-03</internalNodes>
          <leafValues>
            -1. 1.4806388318538666e-01</leafValues></_>
        <_>
          <internalNodes>
            0 -1 72 -1.0640320833772421e-03</internalNodes>
          <leafValues>
            -9.7318226099014282e-01 9.0847313404083252e-02</leafValues></_></weakClassifiers></_>
    <!-- stage 15 -->
    <_>
      <maxWeakCount>8</maxWeakCount>
      <stageThreshold>-1.1394505500793457e+00</stageThreshold>
      <weakClassifiers>
        <_>
          <internalNodes>
            0 -1 33 1.3157183304429054e-02</internalNodes>
          <leafValues>
            -6.6551125049591064e-01 5.0318473577499390e-01</leafValues></_>
        <_>
          <internalNodes>
            0 -1 22 -1.3358345627784729e-01</internalNodes>
          <leafValues>
            -9.4461637735366821e-01 1.2020013481378555e-01</leafValues></_>
        <_>
          <internalNodes>
            0 -1 73 -2.6551084592938423e-03</internalNodes>
          <leafValues>
            -7.9753994941711426e-01 2.0245091617107391e-01</leafValues></_>
        <_>
          <internalNodes>
            0 -1 46 3.7039546296000481e-03</internalNodes>
          <leafValues>
            -3.3243718743324280e-01 6.4662319421768188e-01</leafValues></_>
        <_>
          <internalNodes>
            0 -1 64 -9.0917776105925441e-04</internalNodes>
          <leafValues>
            -8.6823421716690063e-01 2.6469287276268005e-01</leafValues></_>
        <_>
          <internalNodes>
            0 -1 54 -2.5171791203320026e-03</internalNodes>
          <leafValues>
            -6.7119294404983521e-01 2.6214092969894409e-01</leafValues></_>
        <_>
          <internalNodes>
            0 -1 51 -1.3339448720216751e-02</internalNodes>
          <leafValues>
            8.7984979152679443e-01 -2.3746177554130554e-01</leafValues></_>
        <_>
          <internalNodes>
            0 -1 43 -1.4559522242052481e-05</internalNodes>
          <leafValues>
            -5.6185817718505859e-01 3.7940192222595215e-01</leafValues></_></weakClassifiers></_></stages>
  <features>
    <_>
      <rects>
        <_>
          0 0 1 24 -1.</_>
        <_>
          0 8 1 8 3.</_></rects>
      <tilted>0</tilted></_>
    <_>
      <rects>
        <_>
          0 0 17 24 -1.</_>
        <_>
          0 8 17 8 3.</_></rects>
      <tilted>0</tilted></_>
    <_>
      <rects>
        <_>
          0 0 23 14 -1.</_>
        <_>
          0 7 23 7 2.</_></rects>
      <tilted>0</tilted></_>
    <_>
      <rects>
        <_>
          0 1 24 18 -1.</_>
        <_>
          0 1 12 9 2.</_>
        <_>
          12 10 12 9 2.</_></rects>
      <tilted>0</tilted></_>
    <_>
      <rects>
        <_>
          0 2 16 8 -1.</_>
        <_>
          8 2 8 8 2.</_></rects>
      <tilted>0</tilted></_>
    <_>
      <rects>
        <_>
          0 4 9 13 -1.</_>
        <_>
          3 4 3 13 3.</_></rects>
      <tilted>0</tilted></_>
    <_>
      <rects>
        <_>
          0 5 20 6 -1.</_>
        <_>
          0 7 20 2 3.</_></rects>
      <tilted>0</tilted></_>
    <_>
      <rects>
        <_>
          0 6 22 7 -1.</_>
        <_>
          11 6 11 7 2.</_></rects>
      <tilted>0</tilted></_>
    <_>
      <rects>
        <_>
          0 8 2 10 -1.</_>
        <_>
          0 13 2 5 2.</_></rects>
      <tilted>0</tilted></_>
    <_>
      <rects>
        <_>
          0 8 10 12 -1.</_>
        <_>
          5 8 5 12 2.</_></rects>
      <tilted>0</tilted></_>
    <_>
      <rects>
        <_>
          0 8 24 11 -1.</_>
        <_>
          12 8 12 11 2.</_></rects>
      <tilted>0</tilted></_>
    <_>
      <rects>
        <_>
          0 9 10 14 -1.</_>
        <_>
          5 9 5 14 2.</_></rects>
      <tilted>0</tilted></_>
    <_>
      <rects>
        <_>
          0 12 1 12 -1.</_>
        <_>
          0 18 1 6 2.</_></rects>
      <tilted>0</tilted></_>
    <_>
      <rects>
        <_>
          0 17 18 6 -1.</_>
        <_>
          0 17 9 3 2.</_>
        <_>
          9 20 9 3 2.</_></rects>
      <tilted>0</tilted></_>
    <_>
      <rects>
        <_>
          0 20 8 3 -1.</_>
        <_>
          4 20 4 3 2.</_></rects>
      <tilted>0</tilted></_>
    <_>
      <rects>
        <_>
          1 4 19 15 -1.</_>
        <_>
          1 9 19 5 3.</_></rects>
      <tilted>0</tilted></_>
    <_>
      <rects>
        <_>
          1 7 2 14 -1.</_>
        <_>
          2 7 1 14 2.</_></rects>
      <tilted>0</tilted></_>
    <_>
      <rects>
        <_>
          1 12 12 4 -1.</_>
        <_>
          1 14 12 2 2.</_></rects>
      <tilted>0</tilted></_>
    <_>
      <rects>
        <_>
          2 10 8 14 -1.</_>
        <_>
          2 17 8 7 2.</_></rects>
      <tilted>0</tilted></_>
    <_>
      <rects>
        <_>
          2 11 22 12 -1.</_>
        <_>
          2 11 11 6 2.</_>
        <_>
          13 17 11 6 2.</_></rects>
      <tilted>0</tilted></_>
    <_>
      <rects>
        <_>
          2 13 12 2 -1.</_>
        <_>
          2 14 12 1 2.</_></rects>
      <tilted>0</tilted></_>
    <_>
      <rects>
        <_>
          3 0 14 24 -1.</_>
        <_>
          3 8 14 8 3.</_></rects>
      <tilted>0</tilted></_>
    <_>
      <rects>
        <_>
          3 2 11 16 -1.</_>
        <_>
          3 10 11 8 2.</_></rects>
      <tilted>0</tilted></_>
    <_>
      <rects>
        <_>
          3 5 21 6 -1.</_>
        <_>
          10 5 7 6 3.</_></rects>
      <tilted>0</tilted></_>
    <_>
      <rects>
        <_>
          3 8 4 3 -1.</_>
        <_>
          5 8 2 3 2.</_></rects>
      <tilted>0</tilted></_>
    <_>
      <rects>
        <_>
          3 9 4 3 -1.</_>
        <_>
          5 9 2 3 2.</_></rects>
      <tilted>0</tilted></_>
    <_>
      <rects>
        <_>
          4 2 10 21 -1.</_>
        <_>
          4 9 10 7 3.</_></rects>
      <tilted>0</tilted></_>
    <_>
      <rects>
        <_>
          4 4 12 6 -1.</_>
        <_>
          8 4 4 6 3.</_></rects>
      <tilted>0</tilted></_>
    <_>
      <rects>
        <_>
          4 4 12 9 -1.</_>
        <_>
          4 7 12 3 3.</_></rects>
      <tilted>0</tilted></_>
    <_>
      <rects>
        <_>
          4 7 16 6 -1.</_>
        <_>
          4 7 8 3 2.</_>
        <_>
          12 10 8 3 2.</_></rects>
      <tilted>0</tilted></_>
    <_>
      <rects>
        <_>
          4 11 8 12 -1.</_>
        <_>
          4 11 4 6 2.</_>
        <_>
          8 17 4 6 2.</_></rects>
      <tilted>0</tilted></_>
    <_>
      <rects>
        <_>
          4 11 9 8 -1.</_>
        <_>
          4 15 9 4 2.</_></rects>
      <tilted>0</tilted></_>
    <_>
      <rects>
        <_>
          4 11 18 12 -1.</_>
        <_>
          4 11 9 6 2.</_>
        <_>
          13 17 9 6 2.</_></rects>
      <tilted>0</tilted></_>
    <_>
      <rects>
        <_>
          4 12 9 7 -1.</_>
        <_>
          7 12 3 7 3.</_></rects>
      <tilted>0</tilted></_>
    <_>
      <rects>
        <_>
          4 15 16 2 -1.</_>
        <_>
          4 16 16 1 2.</_></rects>
      <tilted>0</tilted></_>
    <_>
      <rects>
        <_>
          5 0 4 9 -1.</_>
        <_>
          7 0 2 9 2.</_></rects>
      <tilted>0</tilted></_>
    <_>
      <rects>
        <_>
          5 2 6 16 -1.</_>
        <_>
          5 10 6 8 2.</_></rects>
      <tilted>0</tilted></_>
    <_>
      <rects>
        <_>
          5 3 7 16 -1.</_>
        <_>
          5 11 7 8 2.</_></rects>
      <tilted>0</tilted></_>
    <_>
      <rects>
        <_>
          5 5 8 3 -1.</_>
        <_>
          9 5 4 3 2.</_></rects>
      <tilted>0</tilted></_>
    <_>
      <rects>
        <_>
          5 5 6 12 -1.</_>
        <_>
          5 11 6 6 2.</_></rects>
      <tilted>0</tilted></_>
    <_>
      <rects>
        <_>
          5 7 18 10 -1.</_>
        <_>
          5 7 9 5 2.</_>
        <_>
          14 12 9 5 2.</_></rects>
      <tilted>0</tilted></_>
    <_>
      <rects>
        <_>
          5 12 9 12 -1.</_>
        <_>
          5 16 9 4 3.</_></rects>
      <tilted>0</tilted></_>
    <_>
      <rects>
        <_>
          6 2 3 10 -1.</_>
        <_>
          7 2 1 10 3.</_></rects>
      <tilted>0</tilted></_>
    <_>
      <rects>
        <_>
          6 10 1 9 -1.</_>
        <_>
          6 13 1 3 3.</_></rects>
      <tilted>0</tilted></_>
    <_>
      <rects>
        <_>
          6 10 4 8 -1.</_>
        <_>
          6 10 2 4 2.</_>
        <_>
          8 14 2 4 2.</_></rects>
      <tilted>0</tilted></_>
    <_>
      <rects>
        <_>
          6 11 4 1 -1.</_>
        <_>
          8 11 2 1 2.</_></rects>
      <tilted>0</tilted></_>
    <_>
      <rects>
        <_>
          6 11 10 2 -1.</_>
        <_>
          6 11 5 1 2.</_>
        <_>
          11 12 5 1 2.</_></rects>
      <tilted>0</tilted></_>
    <_>
      <rects>
        <_>
          6 11 5 6 -1.</_>
        <_>
          6 13 5 2 3.</_></rects>
      <tilted>0</tilted></_>
    <_>
      <rects>
        <_>
          6 11 15 6 -1.</_>
        <_>
          11 11 5 6 3.</_></rects>
      <tilted>0</tilted></_>
    <_>
      <rects>
        <_>
          6 12 6 2 -1.</_>
        <_>
          6 13 6 1 2.</_></rects>
      <tilted>0</tilted></_>
    <_>
      <rects>
        <_>
          6 12 7 12 -1.</_>
        <_>
          6 16 7 4 3.</_></rects>
      <tilted>0</tilted></_>
    <_>
      <rects>
        <_>
          7 12 4 10 -1.</_>
        <_>
          7 12 2 5 2.</_>
        <_>
          9 17 2 5 2.</_></rects>
      <tilted>0</tilted></_>
    <_>
      <rects>
        <_>
          7 12 6 4 -1.</_>
        <_>
          7 12 3 2 2.</_>
        <_>
          10 14 3 2 2.</_></rects>
      <tilted>0</tilted></_>
    <_>
      <rects>
        <_>
          7 14 9 9 -1.</_>
        <_>
          7 17 9 3 3.</_></rects>
      <tilted>0</tilted></_>
    <_>
      <rects>
        <_>
          8 1 14 4 -1.</_>
        <_>
          8 1 7 2 2.</_>
        <_>
          15 3 7 2 2.</_></rects>
      <tilted>0</tilted></_>
    <_>
      <rects>
        <_>
          8 3 16 6 -1.</_>
        <_>
          16 3 8 6 2.</_></rects>
      <tilted>0</tilted></_>
    <_>
      <rects>
        <_>
          8 10 5 3 -1.</_>
        <_>
          8 11 5 1 3.</_></rects>
      <tilted>0</tilted></_>
    <_>
      <rects>
        <_>
          8 11 8 6 -1.</_>
        <_>
          12 11 4 6 2.</_></rects>
      <tilted>0</tilted></_>
    <_>
      <rects>
        <_>
          8 14 2 6 -1.</_>
        <_>
          8 14 1 3 2.</_>
        <_>
          9 17 1 3 2.</_></rects>
      <tilted>0</tilted></_>
    <_>
      <rects>
        <_>
          9 10 12 4 -1.</_>
        <_>
          13 10 4 4 3.</_></rects>
      <tilted>0</tilted></_>
    <_>
      <rects>
        <_>
          9 10 12 5 -1.</_>
        <_>
          13 10 4 5 3.</_></rects>
      <tilted>0</tilted></_>
    <_>
      <rects>
        <_>
          9 10 12 6 -1.</_>
        <_>
          13 10 4 6 3.</_></rects>
      <tilted>0</tilted></_>
    <_>
      <rects>
        <_>
          9 12 9 5 -1.</_>
        <_>
          12 12 3 5 3.</_></rects>
      <tilted>0</tilted></_>
    <_>
      <rects>
        <_>
          10 0 11 2 -1.</_>
        <_>
          10 1 11 1 2.</_></rects>
      <tilted>0</tilted></_>
    <_>
      <rects>
        <_>
          10 4 3 6 -1.</_>
        <_>
          11 4 1 6 3.</_></rects>
      <tilted>0</tilted></_>
    <_>
      <rects>
        <_>
          10 5 9 16 -1.</_>
        <_>
          13 5 3 16 3.</_></rects>
      <tilted>0</tilted></_>
    <_>
      <rects>
        <_>
          10 12 14 8 -1.</_>
        <_>
          10 12 7 4 2.</_>
        <_>
          17 16 7 4 2.</_></rects>
      <tilted>0</tilted></_>
    <_>
      <rects>
        <_>
          10 16 12 8 -1.</_>
        <_>
          10 16 6 4 2.</_>
        <_>
          16 20 6 4 2.</_></rects>
      <tilted>0</tilted></_>
    <_>
      <rects>
        <_>
          11 0 11 24 -1.</_>
        <_>
          11 8 11 8 3.</_></rects>
      <tilted>0</tilted></_>
    <_>
      <rects>
        <_>
          11 6 12 12 -1.</_>
        <_>
          15 6 4 12 3.</_></rects>
      <tilted>0</tilted></_>
    <_>
      <rects>
        <_>
          11 15 10 9 -1.</_>
        <_>
          16 15 5 9 2.</_></rects>
      <tilted>0</tilted></_>
    <_>
      <rects>
        <_>
          12 8 7 15 -1.</_>
        <_>
          12 13 7 5 3.</_></rects>
      <tilted>0</tilted></_>
    <_>
      <rects>
        <_>
          13 4 3 9 -1.</_>
        <_>
          14 4 1 9 3.</_></rects>
      <tilted>0</tilted></_>
    <_>
      <rects>
        <_>
          14 12 9 12 -1.</_>
        <_>
          14 16 9 4 3.</_></rects>
      <tilted>0</tilted></_>
    <_>
      <rects>
        <_>
          15 7 1 9 -1.</_>
        <_>
          15 10 1 3 3.</_></rects>
      <tilted>0</tilted></_>
    <_>
      <rects>
        <_>
          18 0 3 24 -1.</_>
        <_>
          18 12 3 12 2.</_></rects>
      <tilted>0</tilted></_>
    <_>
      <rects>
        <_>
          23 0 1 9 -1.</_>
        <_>
          23 3 1 3 3.</_></rects>
      <tilted>0</tilted></_></features></cascade>
</opencv_storage>
