<?xml version="1.0"?>
<opencv_storage>
<cascade>
  <stageType>BOOST</stageType>
  <featureType>HAAR</featureType>
  <height>20</height>
  <width>20</width>
  <stageParams>
    <boostType>GAB</boostType>
    <minHitRate>9.9500000476837158e-01</minHitRate>
    <maxFalseAlarm>5.0000000000000000e-01</maxFalseAlarm>
    <weightTrimRate>9.4999999999999996e-01</weightTrimRate>
    <maxDepth>1</maxDepth>
    <maxWeakCount>100</maxWeakCount></stageParams>
  <featureParams>
    <maxCatCount>0</maxCatCount>
    <featSize>1</featSize>
    <mode>BASIC</mode></featureParams>
  <stageNum>3</stageNum>
  <stages>
    <!-- stage 0 -->
    <_>
      <maxWeakCount>1</maxWeakCount>
      <stageThreshold>9.7821784019470215e-01</stageThreshold>
      <weakClassifiers>
        <_>
          <internalNodes>
            0 -1 0 -2.9136928915977478e-01</internalNodes>
          <leafValues>
            9.7821784019470215e-01 -9.9591839313507080e-01</leafValues></_></weakClassifiers></_>
    <!-- stage 1 -->
    <_>
      <maxWeakCount>2</maxWeakCount>
      <stageThreshold>-3.5802900791168213e-02</stageThreshold>
      <weakClassifiers>
        <_>
          <internalNodes>
            0 -1 1 2.8497241146396846e-05</internalNodes>
          <leafValues>
            -9.3548387289047241e-01 9.6015936136245728e-01</leafValues></_>
        <_>
          <internalNodes>
            0 -1 2 1.1217906285310164e-04</internalNodes>
          <leafValues>
            -8.6050939559936523e-01 8.9968097209930420e-01</leafValues></_></weakClassifiers></_>
    <!-- stage 2 -->
    <_>
      <maxWeakCount>2</maxWeakCount>
      <stageThreshold>5.0867074169218540e-03</stageThreshold>
      <weakClassifiers>
        <_>
          <internalNodes>
            0 -1 4 2.9782100682496093e-05</internalNodes>
          <leafValues>
            -9.4503170251846313e-01 9.2210322618484497e-01</leafValues></_>
        <_>
          <internalNodes>
            0 -1 3 -5.3512051701545715e-02</internalNodes>
          <leafValues>
            9.5011842250823975e-01 -8.8968431949615479e-01</leafValues></_></weakClassifiers></_></stages>
  <features>
    <_>
      <rects>
        <_>
          4 3 10 15 -1.</_>
        <_>
          4 8 10 5 3.</_></rects>
      <tilted>0</tilted></_>
    <_>
      <rects>
        <_>
          4 15 10 2 -1.</_>
        <_>
          9 15 5 2 2.</_></rects>
      <tilted>0</tilted></_>
    <_>
      <rects>
        <_>
          6 14 9 3 -1.</_>
        <_>
          9 14 3 3 3.</_></rects>
      <tilted>0</tilted></_>
    <_>
      <rects>
        <_>
          10 6 3 9 -1.</_>
        <_>
          10 9 3 3 3.</_></rects>
      <tilted>0</tilted></_>
    <_>
      <rects>
        <_>
          15 8 3 4 -1.</_>
        <_>
          16 8 1 4 3.</_></rects>
      <tilted>0</tilted></_></features></cascade>
</opencv_storage>
