<?xml version="1.0"?>
<opencv_storage>
<cascade>
  <stageType>BOOST</stageType>
  <featureType>HAAR</featureType>
  <height>20</height>
  <width>20</width>
  <stageParams>
    <boostType>GAB</boostType>
    <minHitRate>9.9500000476837158e-01</minHitRate>
    <maxFalseAlarm>5.0000000000000000e-01</maxFalseAlarm>
    <weightTrimRate>9.4999999999999996e-01</weightTrimRate>
    <maxDepth>1</maxDepth>
    <maxWeakCount>100</maxWeakCount></stageParams>
  <featureParams>
    <maxCatCount>0</maxCatCount>
    <featSize>1</featSize>
    <mode>BASIC</mode></featureParams>
  <stageNum>5</stageNum>
  <stages>
    <!-- stage 0 -->
    <_>
      <maxWeakCount>2</maxWeakCount>
      <stageThreshold>-1.9073450937867165e-02</stageThreshold>
      <weakClassifiers>
        <_>
          <internalNodes>
            0 -1 0 -5.5712476372718811e-02</internalNodes>
          <leafValues>
            9.6446198225021362e-01 -9.7946614027023315e-01</leafValues></_>
        <_>
          <internalNodes>
            0 -1 8 5.5296756327152252e-03</internalNodes>
          <leafValues>
            -9.7945249080657959e-01 9.6039265394210815e-01</leafValues></_></weakClassifiers></_>
    <!-- stage 1 -->
    <_>
      <maxWeakCount>2</maxWeakCount>
      <stageThreshold>-6.9307193160057068e-02</stageThreshold>
      <weakClassifiers>
        <_>
          <internalNodes>
            0 -1 3 -1.1302506754873320e-04</internalNodes>
          <leafValues>
            8.7286525964736938e-01 -9.4170403480529785e-01</leafValues></_>
        <_>
          <internalNodes>
            0 -1 1 -1.2392807984724641e-03</internalNodes>
          <leafValues>
            8.7239682674407959e-01 -9.4045269489288330e-01</leafValues></_></weakClassifiers></_>
    <!-- stage 2 -->
    <_>
      <maxWeakCount>2</maxWeakCount>
      <stageThreshold>-6.5073378384113312e-02</stageThreshold>
      <weakClassifiers>
        <_>
          <internalNodes>
            0 -1 7 -1.6720875864848495e-03</internalNodes>
          <leafValues>
            9.2315268516540527e-01 -9.0103089809417725e-01</leafValues></_>
        <_>
          <internalNodes>
            0 -1 9 1.7865808331407607e-04</internalNodes>
          <leafValues>
            -8.9160108566284180e-01 8.3595752716064453e-01</leafValues></_></weakClassifiers></_>
    <!-- stage 3 -->
    <_>
      <maxWeakCount>2</maxWeakCount>
      <stageThreshold>-3.7982802838087082e-02</stageThreshold>
      <weakClassifiers>
        <_>
          <internalNodes>
            0 -1 4 -4.6168983681127429e-04</internalNodes>
          <leafValues>
            8.5199612379074097e-01 -7.9281181097030640e-01</leafValues></_>
        <_>
          <internalNodes>
            0 -1 2 -6.4736197236925364e-04</internalNodes>
          <leafValues>
            7.5482904911041260e-01 -8.5760039091110229e-01</leafValues></_></weakClassifiers></_>
    <!-- stage 4 -->
    <_>
      <maxWeakCount>2</maxWeakCount>
      <stageThreshold>-2.1149647235870361e-01</stageThreshold>
      <weakClassifiers>
        <_>
          <internalNodes>
            0 -1 6 -1.3627198059111834e-03</internalNodes>
          <leafValues>
            7.5812274217605591e-01 -8.6734694242477417e-01</leafValues></_>
        <_>
          <internalNodes>
            0 -1 5 -5.9827498625963926e-04</internalNodes>
          <leafValues>
            6.5585047006607056e-01 -8.3713424205780029e-01</leafValues></_></weakClassifiers></_></stages>
  <features>
    <_>
      <rects>
        <_>
          2 3 6 13 -1.</_>
        <_>
          5 3 3 13 2.</_></rects>
      <tilted>0</tilted></_>
    <_>
      <rects>
        <_>
          2 6 4 2 -1.</_>
        <_>
          2 7 4 1 2.</_></rects>
      <tilted>0</tilted></_>
    <_>
      <rects>
        <_>
          2 7 3 2 -1.</_>
        <_>
          2 8 3 1 2.</_></rects>
      <tilted>0</tilted></_>
    <_>
      <rects>
        <_>
          6 15 2 3 -1.</_>
        <_>
          7 15 1 3 2.</_></rects>
      <tilted>0</tilted></_>
    <_>
      <rects>
        <_>
          7 2 2 3 -1.</_>
        <_>
          8 2 1 3 2.</_></rects>
      <tilted>0</tilted></_>
    <_>
      <rects>
        <_>
          8 2 6 2 -1.</_>
        <_>
          10 2 2 2 3.</_></rects>
      <tilted>0</tilted></_>
    <_>
      <rects>
        <_>
          9 15 6 3 -1.</_>
        <_>
          11 15 2 3 3.</_></rects>
      <tilted>0</tilted></_>
    <_>
      <rects>
        <_>
          11 6 8 4 -1.</_>
        <_>
          11 6 4 2 2.</_>
        <_>
          15 8 4 2 2.</_></rects>
      <tilted>0</tilted></_>
    <_>
      <rects>
        <_>
          16 6 2 11 -1.</_>
        <_>
          17 6 1 11 2.</_></rects>
      <tilted>0</tilted></_>
    <_>
      <rects>
        <_>
          16 10 1 6 -1.</_>
        <_>
          16 13 1 3 2.</_></rects>
      <tilted>0</tilted></_></features></cascade>
</opencv_storage>
