<?xml version="1.0"?>
<opencv_storage>
<cascade>
  <stageType>BOOST</stageType>
  <featureType>HAAR</featureType>
  <height>20</height>
  <width>20</width>
  <stageParams>
    <boostType>GAB</boostType>
    <minHitRate>9.9500000476837158e-01</minHitRate>
    <maxFalseAlarm>5.0000000000000000e-01</maxFalseAlarm>
    <weightTrimRate>9.4999999999999996e-01</weightTrimRate>
    <maxDepth>1</maxDepth>
    <maxWeakCount>100</maxWeakCount></stageParams>
  <featureParams>
    <maxCatCount>0</maxCatCount>
    <featSize>1</featSize>
    <mode>BASIC</mode></featureParams>
  <stageNum>4</stageNum>
  <stages>
    <!-- stage 0 -->
    <_>
      <maxWeakCount>1</maxWeakCount>
      <stageThreshold>9.5490193367004395e-01</stageThreshold>
      <weakClassifiers>
        <_>
          <internalNodes>
            0 -1 5 3.0170273967087269e-03</internalNodes>
          <leafValues>
            -9.8750001192092896e-01 9.5490193367004395e-01</leafValues></_></weakClassifiers></_>
    <!-- stage 1 -->
    <_>
      <maxWeakCount>2</maxWeakCount>
      <stageThreshold>-4.9323033541440964e-02</stageThreshold>
      <weakClassifiers>
        <_>
          <internalNodes>
            0 -1 0 1.7581596970558167e-02</internalNodes>
          <leafValues>
            -9.0631365776062012e-01 9.3657088279724121e-01</leafValues></_>
        <_>
          <internalNodes>
            0 -1 3 6.3068502640817314e-05</internalNodes>
          <leafValues>
            -8.7748110294342041e-01 8.5699063539505005e-01</leafValues></_></weakClassifiers></_>
    <!-- stage 2 -->
    <_>
      <maxWeakCount>2</maxWeakCount>
      <stageThreshold>-6.7446932196617126e-02</stageThreshold>
      <weakClassifiers>
        <_>
          <internalNodes>
            0 -1 4 -3.0880630947649479e-04</internalNodes>
          <leafValues>
            8.9320385456085205e-01 -8.9361703395843506e-01</leafValues></_>
        <_>
          <internalNodes>
            0 -1 6 -4.3857584387296811e-05</internalNodes>
          <leafValues>
            8.2617008686065674e-01 -7.4669438600540161e-01</leafValues></_></weakClassifiers></_>
    <!-- stage 3 -->
    <_>
      <maxWeakCount>2</maxWeakCount>
      <stageThreshold>-4.4030196964740753e-02</stageThreshold>
      <weakClassifiers>
        <_>
          <internalNodes>
            0 -1 1 3.4978464245796204e-02</internalNodes>
          <leafValues>
            -7.9294115304946899e-01 7.7860462665557861e-01</leafValues></_>
        <_>
          <internalNodes>
            0 -1 2 -5.1117473049089313e-05</internalNodes>
          <leafValues>
            7.4891096353530884e-01 -6.5296095609664917e-01</leafValues></_></weakClassifiers></_></stages>
  <features>
    <_>
      <rects>
        <_>
          1 7 9 5 -1.</_>
        <_>
          4 7 3 5 3.</_></rects>
      <tilted>0</tilted></_>
    <_>
      <rects>
        <_>
          2 6 9 9 -1.</_>
        <_>
          5 6 3 9 3.</_></rects>
      <tilted>0</tilted></_>
    <_>
      <rects>
        <_>
          4 14 3 2 -1.</_>
        <_>
          4 15 3 1 2.</_></rects>
      <tilted>0</tilted></_>
    <_>
      <rects>
        <_>
          6 3 3 4 -1.</_>
        <_>
          6 5 3 2 2.</_></rects>
      <tilted>0</tilted></_>
    <_>
      <rects>
        <_>
          9 14 5 4 -1.</_>
        <_>
          9 16 5 2 2.</_></rects>
      <tilted>0</tilted></_>
    <_>
      <rects>
        <_>
          10 7 9 6 -1.</_>
        <_>
          13 7 3 6 3.</_></rects>
      <tilted>0</tilted></_>
    <_>
      <rects>
        <_>
          13 4 2 3 -1.</_>
        <_>
          14 4 1 3 2.</_></rects>
      <tilted>0</tilted></_></features></cascade>
</opencv_storage>
