<?xml version="1.0"?>
<opencv_storage>
<cascade>
  <stageType>BOOST</stageType>
  <featureType>HAAR</featureType>
  <height>20</height>
  <width>20</width>
  <stageParams>
    <boostType>GAB</boostType>
    <minHitRate>9.9500000476837158e-01</minHitRate>
    <maxFalseAlarm>5.0000000000000000e-01</maxFalseAlarm>
    <weightTrimRate>9.4999999999999996e-01</weightTrimRate>
    <maxDepth>1</maxDepth>
    <maxWeakCount>100</maxWeakCount></stageParams>
  <featureParams>
    <maxCatCount>0</maxCatCount>
    <featSize>1</featSize>
    <mode>BASIC</mode></featureParams>
  <stageNum>7</stageNum>
  <stages>
    <!-- stage 0 -->
    <_>
      <maxWeakCount>2</maxWeakCount>
      <stageThreshold>-3.0411956831812859e-02</stageThreshold>
      <weakClassifiers>
        <_>
          <internalNodes>
            0 -1 0 2.8385425684973598e-04</internalNodes>
          <leafValues>
            -9.4250512123107910e-01 9.4669300317764282e-01</leafValues></_>
        <_>
          <internalNodes>
            0 -1 18 -4.6499317249981686e-05</internalNodes>
          <leafValues>
            9.1209316253662109e-01 -9.0982812643051147e-01</leafValues></_></weakClassifiers></_>
    <!-- stage 1 -->
    <_>
      <maxWeakCount>3</maxWeakCount>
      <stageThreshold>-6.9500398635864258e-01</stageThreshold>
      <weakClassifiers>
        <_>
          <internalNodes>
            0 -1 11 -5.6091092119459063e-05</internalNodes>
          <leafValues>
            8.5059762001037598e-01 -7.1370965242385864e-01</leafValues></_>
        <_>
          <internalNodes>
            0 -1 2 3.0919371056370437e-05</internalNodes>
          <leafValues>
            -7.6081532239913940e-01 8.5439443588256836e-01</leafValues></_>
        <_>
          <internalNodes>
            0 -1 17 8.4105660789646208e-05</internalNodes>
          <leafValues>
            -7.7639532089233398e-01 7.7952098846435547e-01</leafValues></_></weakClassifiers></_>
    <!-- stage 2 -->
    <_>
      <maxWeakCount>2</maxWeakCount>
      <stageThreshold>4.2476799339056015e-02</stageThreshold>
      <weakClassifiers>
        <_>
          <internalNodes>
            0 -1 5 7.0018599217291921e-05</internalNodes>
          <leafValues>
            -6.6030532121658325e-01 8.6680328845977783e-01</leafValues></_>
        <_>
          <internalNodes>
            0 -1 10 5.4558280680794269e-05</internalNodes>
          <leafValues>
            -8.2198673486709595e-01 7.0278215408325195e-01</leafValues></_></weakClassifiers></_>
    <!-- stage 3 -->
    <_>
      <maxWeakCount>3</maxWeakCount>
      <stageThreshold>-7.0902246236801147e-01</stageThreshold>
      <weakClassifiers>
        <_>
          <internalNodes>
            0 -1 16 -2.1324189379811287e-02</internalNodes>
          <leafValues>
            8.6679726839065552e-01 -8.0375784635543823e-01</leafValues></_>
        <_>
          <internalNodes>
            0 -1 1 4.6664186811540276e-05</internalNodes>
          <leafValues>
            -6.9099789857864380e-01 7.7717047929763794e-01</leafValues></_>
        <_>
          <internalNodes>
            0 -1 15 -3.4730135666904971e-05</internalNodes>
          <leafValues>
            8.0086404085159302e-01 -6.8243515491485596e-01</leafValues></_></weakClassifiers></_>
    <!-- stage 4 -->
    <_>
      <maxWeakCount>3</maxWeakCount>
      <stageThreshold>-5.1855880022048950e-01</stageThreshold>
      <weakClassifiers>
        <_>
          <internalNodes>
            0 -1 6 8.5267409682273865e-02</internalNodes>
          <leafValues>
            -6.2256807088851929e-01 8.3164298534393311e-01</leafValues></_>
        <_>
          <internalNodes>
            0 -1 12 -3.9103641029214486e-05</internalNodes>
          <leafValues>
            7.9944318532943726e-01 -6.6829150915145874e-01</leafValues></_>
        <_>
          <internalNodes>
            0 -1 13 -4.4960655941395089e-05</internalNodes>
          <leafValues>
            7.7230077981948853e-01 -5.5577123165130615e-01</leafValues></_></weakClassifiers></_>
    <!-- stage 5 -->
    <_>
      <maxWeakCount>3</maxWeakCount>
      <stageThreshold>-7.4776613712310791e-01</stageThreshold>
      <weakClassifiers>
        <_>
          <internalNodes>
            0 -1 3 1.0169480810873210e-04</internalNodes>
          <leafValues>
            -6.5234375000000000e-01 8.4412956237792969e-01</leafValues></_>
        <_>
          <internalNodes>
            0 -1 8 3.3023818104993552e-05</internalNodes>
          <leafValues>
            -7.2522383928298950e-01 7.2447341680526733e-01</leafValues></_>
        <_>
          <internalNodes>
            0 -1 7 -4.5033528294879943e-05</internalNodes>
          <leafValues>
            6.2980145215988159e-01 -7.7175045013427734e-01</leafValues></_></weakClassifiers></_>
    <!-- stage 6 -->
    <_>
      <maxWeakCount>4</maxWeakCount>
      <stageThreshold>-1.1919067054986954e-01</stageThreshold>
      <weakClassifiers>
        <_>
          <internalNodes>
            0 -1 9 -4.7744801122462377e-05</internalNodes>
          <leafValues>
            8.8389921188354492e-01 -5.2299827337265015e-01</leafValues></_>
        <_>
          <internalNodes>
            0 -1 4 5.9159701777389273e-05</internalNodes>
          <leafValues>
            -7.1828836202621460e-01 6.8422156572341919e-01</leafValues></_>
        <_>
          <internalNodes>
            0 -1 19 -4.7741399612277746e-05</internalNodes>
          <leafValues>
            6.8721467256546021e-01 -8.9670419692993164e-01</leafValues></_>
        <_>
          <internalNodes>
            0 -1 14 -3.5639277484733611e-05</internalNodes>
          <leafValues>
            6.3317173719406128e-01 -7.9060727357864380e-01</leafValues></_></weakClassifiers></_></stages>
  <features>
    <_>
      <rects>
        <_>
          0 6 18 3 -1.</_>
        <_>
          6 6 6 3 3.</_></rects>
      <tilted>0</tilted></_>
    <_>
      <rects>
        <_>
          3 9 4 1 -1.</_>
        <_>
          5 9 2 1 2.</_></rects>
      <tilted>0</tilted></_>
    <_>
      <rects>
        <_>
          3 10 4 1 -1.</_>
        <_>
          5 10 2 1 2.</_></rects>
      <tilted>0</tilted></_>
    <_>
      <rects>
        <_>
          3 11 4 1 -1.</_>
        <_>
          5 11 2 1 2.</_></rects>
      <tilted>0</tilted></_>
    <_>
      <rects>
        <_>
          4 10 6 1 -1.</_>
        <_>
          6 10 2 1 3.</_></rects>
      <tilted>0</tilted></_>
    <_>
      <rects>
        <_>
          4 12 4 3 -1.</_>
        <_>
          6 12 2 3 2.</_></rects>
      <tilted>0</tilted></_>
    <_>
      <rects>
        <_>
          6 0 10 12 -1.</_>
        <_>
          6 6 10 6 2.</_></rects>
      <tilted>0</tilted></_>
    <_>
      <rects>
        <_>
          6 8 4 2 -1.</_>
        <_>
          8 8 2 2 2.</_></rects>
      <tilted>0</tilted></_>
    <_>
      <rects>
        <_>
          7 3 2 4 -1.</_>
        <_>
          7 5 2 2 2.</_></rects>
      <tilted>0</tilted></_>
    <_>
      <rects>
        <_>
          8 13 4 4 -1.</_>
        <_>
          10 13 2 4 2.</_></rects>
      <tilted>0</tilted></_>
    <_>
      <rects>
        <_>
          9 2 1 6 -1.</_>
        <_>
          9 5 1 3 2.</_></rects>
      <tilted>0</tilted></_>
    <_>
      <rects>
        <_>
          10 12 1 6 -1.</_>
        <_>
          10 15 1 3 2.</_></rects>
      <tilted>0</tilted></_>
    <_>
      <rects>
        <_>
          10 13 1 4 -1.</_>
        <_>
          10 15 1 2 2.</_></rects>
      <tilted>0</tilted></_>
    <_>
      <rects>
        <_>
          11 8 1 2 -1.</_>
        <_>
          11 9 1 1 2.</_></rects>
      <tilted>0</tilted></_>
    <_>
      <rects>
        <_>
          11 12 4 1 -1.</_>
        <_>
          13 12 2 1 2.</_></rects>
      <tilted>0</tilted></_>
    <_>
      <rects>
        <_>
          11 12 2 2 -1.</_>
        <_>
          11 13 2 1 2.</_></rects>
      <tilted>0</tilted></_>
    <_>
      <rects>
        <_>
          12 7 6 7 -1.</_>
        <_>
          15 7 3 7 2.</_></rects>
      <tilted>0</tilted></_>
    <_>
      <rects>
        <_>
          12 7 5 2 -1.</_>
        <_>
          12 8 5 1 2.</_></rects>
      <tilted>0</tilted></_>
    <_>
      <rects>
        <_>
          13 8 4 4 -1.</_>
        <_>
          15 8 2 4 2.</_></rects>
      <tilted>0</tilted></_>
    <_>
      <rects>
        <_>
          13 9 4 2 -1.</_>
        <_>
          15 9 2 2 2.</_></rects>
      <tilted>0</tilted></_></features></cascade>
</opencv_storage>
